tree
version=v4
num_class=1
num_tree_per_iteration=1
label_index=0
max_feature_idx=13
objective=regression
feature_names=day_of_year is_weekend is_holiday lag_1 lag_7 lag_14 roll_mean_7 roll_std_7 roll_mean_14 roll_std_14 roll_mean_30 roll_std_30 rain_mm max_temp
feature_infos=[1:292] [0:1] none [187:5174] [187:5174] [187:5174] [863.85714285714289:3330.7142857142858] [162.44281044930992:1617.6983502436274] [1412.2857142857142:3107.1428571428573] [416.26830554079856:1309.7176211889137] [1650.8333333333333:2781.8000000000002] [473.74563838103739:1172.6731325744904] none [-0.24007171671896022:0.35772594752186615]
tree_sizes=800 808 871 871 805 792 887 884 887 887 884 967 884 882 885 790 718 785 800 882 968 883 1042 951 878 883 881 872 807 879 846 849 963 963 881 797 783 877 873 795 794 793 784 792 869 941 863 861 944 853 783 778 850 852 783 785 849 861 942 858 940 768 938 778 854 1011 845 920 1012 1010 923 769 843 928 936 839 856 845 934 846 835 846 928 850 848 852 849 849 774 855 925 933 1010 843 930 843 849 772 927 923 770 774 853 938 850 765 931 920 844 924 863 783 863 703 777 932 855 933 853 845 934 938 937 930 939 860 862 863 860 863 849 862 939 941 852 853 921 853 855 852 866 864 944 934 932 933 861 779 854 857 936 936 851 935 1013 853 865 862 865 932 940 859 927 937 856 853 703 856 851 861 858 781 847 866 924 858 858 859 860 857 849 928 778 931 929 925 854 856 867 927 937 946 859 778 787 935 856 856 938 857 943 931 851 855 857 945 934 1017 938 940 1010 930 933 933 938 935 855 925 781 931 775 780 937 852 770 779 861 855 779 857 773 851 866 786 859 861 783 857 863 864 936 860 862 858 860

Tree=0
num_leaves=8
num_cat=0
split_feature=13 4 13 4 13 4 13
split_gain=4.70819e+07 2.32322e+07 1.89582e+07 1.79875e+07 1.08029e+07 6.21867e+06 490556
threshold=0.053377728464598102 2548.5000000000005 -0.062334073624167922 1377.0000000000002 -0.024438067250335035 1377.0000000000002 0.0029294906732637576
decision_type=2 2 2 2 2 2 2
left_child=1 4 -3 -2 -1 -6 -7
right_child=3 2 -4 -5 5 6 -8
leaf_value=2075.5695348155637 2140.1385297364859 2107.2063207461288 2163.5429277799949 2200.3105920430357 2089.5966777184826 2115.5931996937925 2126.0366781473763
leaf_weight=35 27 28 32 23 25 23 22
leaf_count=35 27 28 32 23 25 23 22
internal_value=2126.25 2112.43 2137.25 2167.82 2098.25 2109.59 2120.7
internal_weight=0 165 60 50 105 70 45
internal_count=215 165 60 50 105 70 45
is_linear=0
shrinkage=1


Tree=1
num_leaves=8
num_cat=0
split_feature=13 4 13 4 13 4 13
split_gain=4.24914e+07 2.09671e+07 1.71098e+07 1.62337e+07 9.74965e+06 5.61235e+06 442727
threshold=0.053377728464598102 2548.5000000000005 -0.062334073624167922 1377.0000000000002 -0.024438067250335035 1377.0000000000002 0.0029294906732637576
decision_type=2 2 2 2 2 2 2
left_child=1 4 -3 -2 -1 -6 -7
right_child=3 2 -4 -5 5 6 -8
leaf_value=-48.145620553152902 13.194924926757814 -18.090672746726447 35.429103744030002 70.358384472390881 -34.819833984375002 -10.123138295049253 -0.20183395905928181
leaf_weight=35 27 28 32 23 25 23 22
leaf_count=35 27 28 32 23 25 23 22
internal_value=0 -13.1253 10.4532 39.4901 -26.5987 -15.8253 -5.27272
internal_weight=0 165 60 50 105 70 45
internal_count=215 165 60 50 105 70 45
is_linear=0
shrinkage=0.05


Tree=2
num_leaves=9
num_cat=0
split_feature=6 1 6 6 5 7 5 0
split_gain=3.54057e+07 1.40358e+07 6.47574e+06 4.90584e+06 3.52022e+06 2.5234e+06 1.22824e+06 471247
threshold=2204.5000000000005 1.0000000180025095e-35 2734.6428571428573 1638.1428571428573 1170.5000000000002 827.03719301941703 1972.5000000000002 194.50000000000003
decision_type=2 2 2 2 2 2 2 2
left_child=3 2 5 -1 -5 -2 -6 -8
right_child=1 -3 -4 4 6 -7 7 -9
leaf_value=-33.848545542885276 11.441001230478287 -9.734339415508769 57.781325305591935 -27.760350204467773 3.5727763714997667 35.980257207697086 -16.348583965301515 -6.1398611802321215
leaf_weight=34 20 23 22 25 23 22 20 26
leaf_count=34 20 23 22 25 23 22 20 26
internal_value=0 23.7665 35.8059 -17.5726 -11.6856 24.2949 -5.86137 -10.5784
internal_weight=0 87 64 128 94 42 69 46
internal_count=215 87 64 128 94 42 69 46
is_linear=0
shrinkage=0.05


Tree=3
num_leaves=9
num_cat=0
split_feature=6 1 6 6 5 9 5 9
split_gain=3.19536e+07 1.26673e+07 5.84436e+06 4.42752e+06 3.17699e+06 1.36468e+06 1.11693e+06 348845
threshold=2204.5000000000005 1.0000000180025095e-35 2734.6428571428573 1638.1428571428573 1170.5000000000002 867.38664942978687 2138.5000000000005 767.79920561812366
decision_type=2 2 2 2 2 2 2 2
left_child=3 2 5 -1 -5 -2 7 -6
right_child=1 -3 -4 4 6 -7 -8 -9
leaf_value=-32.156117332682889 13.627421348094941 -9.2476222826086953 54.892259875210847 -26.372332719802859 -4.8125248735601254 31.673544582453641 -13.502450483816643 4.3114599502086639
leaf_weight=34 20 23 22 25 22 22 27 20
leaf_count=34 20 23 22 25 22 22 27 20
internal_value=0 22.5782 34.0156 -16.694 -11.1013 23.0802 -5.5683 -0.46777
internal_weight=0 87 64 128 94 42 69 42
internal_count=215 87 64 128 94 42 69 42
is_linear=0
shrinkage=0.05


Tree=4
num_leaves=8
num_cat=0
split_feature=13 4 13 8 13 4 13
split_gain=3.65176e+07 1.57907e+07 1.43607e+07 1.39654e+07 8.73785e+06 4.72713e+06 691329
threshold=0.058143024463724109 2548.5000000000005 -0.043448549576014954 2010.1785714285718 -0.024438067250335035 1243.0000000000002 0.0056801777462968115
decision_type=2 2 2 2 2 2 2
left_child=1 4 -3 -2 -1 -6 -7
right_child=3 2 -4 -5 5 6 -8
leaf_value=-43.816389160156255 11.805379024505616 -10.564070979968923 39.747574001809824 65.791627701469096 -32.675198414379899 -10.289151064554851 1.5073027569314708
leaf_weight=35 25 37 23 23 22 27 23
leaf_count=35 25 37 23 23 22 27 23
internal_value=0 -11.8098 8.72206 37.6738 -23.3231 -13.361 -4.86278
internal_weight=0 167 60 48 107 72 50
internal_count=215 167 60 48 107 72 50
is_linear=0
shrinkage=0.05


Tree=5
num_leaves=8
num_cat=0
split_feature=6 1 6 6 1 6 10
split_gain=2.963e+07 6.89358e+06 2.87968e+06 2.57171e+06 1.94989e+06 806667 649724
threshold=2204.5000000000005 1.0000000180025095e-35 2692.1428571428573 1638.1428571428573 1.0000000180025095e-35 1784.3571428571429 1984.3833333333337
decision_type=2 2 2 2 2 2 2
left_child=3 2 -2 -1 5 -5 -7
right_child=1 -3 -4 4 -6 6 -8
leaf_value=-27.861704786121848 20.705801675258542 0.46293600201606755 41.510694017081427 -0.3900725258721246 -22.772483181953433 -16.94190841714541 -4.8991632098243354
leaf_weight=32 39 29 29 27 28 24 21
leaf_count=32 39 29 29 27 28 24 21
internal_value=0 20.8738 29.5785 -15.5244 -11.5765 -7.2225 -11.322
internal_weight=0 97 68 132 100 72 45
internal_count=229 97 68 132 100 72 45
is_linear=0
shrinkage=0.05


Tree=6
num_leaves=9
num_cat=0
split_feature=13 6 13 4 13 13 4 7
split_gain=2.89293e+07 1.70459e+07 7.35453e+06 4.87149e+06 6.51117e+06 4.14599e+06 3.61931e+06 1.7731e+06
threshold=0.099536960609184391 2204.5000000000005 -0.024438067250335035 2548.5000000000005 0.027323530546507716 -0.037154853201491082 1741.0000000000002 639.9907358085751
decision_type=2 2 2 2 2 2 2 2
left_child=1 2 7 4 -3 -5 -4 -1
right_child=-2 3 6 5 -6 -7 -8 -9
leaf_value=-24.394608854210897 49.555774864783658 -21.717690928429366 -20.112782698207432 6.451953990459443 18.145014242898849 37.906442989002578 2.0108058673770803 -44.027673928633988
leaf_weight=23 26 20 36 20 21 22 38 23
leaf_count=23 26 20 36 20 21 22 38 23
internal_value=0 -6.46153 -18.5114 10.9599 -1.30021 22.9281 -8.75202 -34.2111
internal_weight=0 203 120 83 41 42 74 46
internal_count=229 203 120 83 41 42 74 46
is_linear=0
shrinkage=0.05


Tree=7
num_leaves=9
num_cat=0
split_feature=13 6 8 4 13 13 4 4
split_gain=2.64495e+07 1.27641e+07 1.1761e+07 7.42247e+06 5.82684e+06 3.74176e+06 3.08239e+06 1.72552e+06
threshold=0.066602177232249385 2204.5000000000005 2092.178571428572 2548.5000000000005 -0.024438067250335035 -0.037154853201491082 1710.5000000000002 2278.0000000000005
decision_type=2 2 2 2 2 2 2 2
left_child=1 4 -2 -3 7 -5 -6 -1
right_child=2 3 -4 5 6 -7 -8 -9
leaf_value=-43.541952590942387 8.8500279688835146 -9.3950416292463039 62.424748011997771 6.1293564009666444 -21.762169949497498 36.011121593822132 0.22606554466324882 -24.007224057270932
leaf_weight=20 20 35 21 20 28 22 37 26
leaf_count=20 20 35 21 20 28 22 37 26
internal_value=0 -8.0319 36.2907 7.61046 -18.8829 21.7817 -9.24579 -32.5006
internal_weight=0 188 41 77 111 42 65 46
internal_count=229 188 41 77 111 42 65 46
is_linear=0
shrinkage=0.05


Tree=8
num_leaves=9
num_cat=0
split_feature=13 8 6 4 13 4 13 13
split_gain=2.40982e+07 1.08185e+07 1.01098e+07 7.69093e+06 4.85856e+06 3.43062e+06 3.04893e+06 1.236e+06
threshold=0.053377728464598102 2049.8571428571436 2204.5000000000005 2548.5000000000005 -0.07709885568308332 1635.0000000000002 -0.037154853201491082 -0.012534094394425486
decision_type=2 2 2 2 2 2 2 2
left_child=2 -2 4 -4 -1 -6 -5 -7
right_child=1 -3 3 6 5 7 -8 -9
leaf_value=-38.99792600092681 5.1996428137024253 50.947434983934677 -13.520210081736247 5.8228886776417497 -27.667431075484668 -14.546811755498252 33.100814510527115 0.46357752233743671
leaf_weight=23 24 28 30 20 27 24 21 32
leaf_count=23 24 28 30 20 27 24 21 32
internal_value=0 29.8331 -8.88301 5.71787 -18.6628 -13.0278 19.7945 -5.96945
internal_weight=0 52 177 71 106 83 41 56
internal_count=229 52 177 71 106 83 41 56
is_linear=0
shrinkage=0.05


Tree=9
num_leaves=9
num_cat=0
split_feature=13 6 13 4 13 13 4 4
split_gain=2.2405e+07 1.24764e+07 5.41586e+06 3.71068e+06 5.06411e+06 3.05106e+06 2.77293e+06 1.58433e+06
threshold=0.099536960609184391 2204.5000000000005 -0.024438067250335035 2548.5000000000005 0.027323530546507716 -0.037154853201491082 1741.0000000000002 2278.0000000000005
decision_type=2 2 2 2 2 2 2 2
left_child=1 2 7 4 -3 -5 -4 -1
right_child=-2 3 6 5 -6 -7 -8 -9
leaf_value=-40.045611648559571 43.61345929365892 -19.486044034957885 -17.562321538395352 5.5317444086074836 15.669090488127299 32.51496410369873 1.8024589253883612 -21.327180904608507
leaf_weight=20 26 20 36 20 21 22 38 26
leaf_count=20 26 20 36 20 21 22 38 26
internal_value=0 -5.68411 -15.9931 9.22041 -1.47976 19.6658 -7.61825 -29.4656
internal_weight=0 203 120 83 41 42 74 46
internal_count=229 203 120 83 41 42 74 46
is_linear=0
shrinkage=0.05


Tree=10
num_leaves=9
num_cat=0
split_feature=13 6 1 13 13 4 4 4
split_gain=2.64086e+07 1.7023e+07 5.54957e+06 5.17687e+06 4.23775e+06 2.65694e+06 1.43347e+06 363290
threshold=0.11236564099839387 2204.5000000000005 1.0000000180025095e-35 0.0060478131342890382 -0.024438067250335035 1014.0000000000001 2223.0000000000005 1762.5000000000002
decision_type=2 2 2 2 2 2 2 2
left_child=1 4 3 -3 6 -6 -1 -7
right_child=-2 2 -4 -5 5 7 -8 -9
leaf_value=-38.501612787661344 47.796532718951887 6.8032756462241668 -7.7768979897865878 36.635521140465372 -23.708014724731445 -8.96434283733368 -20.848752824119899 -0.26461205484966438
leaf_weight=23 26 33 26 26 25 20 23 30
leaf_count=23 26 33 26 26 25 20 23 30
internal_value=0 -5.68035 11.4686 19.9497 -17.7271 -10.399 -29.6752 -3.7445
internal_weight=0 206 85 59 121 75 46 50
internal_count=232 206 85 59 121 75 46 50
is_linear=0
shrinkage=0.05


Tree=11
num_leaves=10
num_cat=0
split_feature=13 6 4 4 13 13 4 4 13
split_gain=2.41809e+07 1.14613e+07 1.06582e+07 6.98035e+06 4.66428e+06 3.64224e+06 2.84566e+06 1.2937e+06 296552
threshold=0.078702835136775798 2204.5000000000005 1158.5000000000002 2548.5000000000005 -0.028822779231689296 -0.024438067250335035 1114.0000000000002 2223.0000000000005 0.0056801777462968115
decision_type=2 2 2 2 2 2 2 2 2
left_child=1 5 -2 -3 -5 7 -7 -1 -8
right_child=2 3 -4 4 -6 6 8 -9 -10
leaf_value=-36.576532446819805 9.015327429771423 -8.5956512649854027 60.016455441429507 5.5214182160117415 38.884075942039487 -24.657134038751778 -6.5116639438395696 -19.806315538157591 1.6243438834235784
leaf_weight=23 20 36 21 22 20 22 24 23 21
leaf_count=23 20 36 21 22 20 22 24 23 21
internal_value=0 -7.18179 35.1379 7.56038 21.4084 -17.3578 -9.91979 -28.1914 -2.71486
internal_weight=0 191 41 78 42 113 67 46 45
internal_count=232 191 41 78 42 113 67 46 45
is_linear=0
shrinkage=0.05


Tree=12
num_leaves=9
num_cat=0
split_feature=13 6 13 4 13 4 4 4
split_gain=2.19605e+07 1.38781e+07 4.82855e+06 4.96454e+06 3.41252e+06 2.23618e+06 1.16757e+06 332933
threshold=0.11236564099839387 2204.5000000000005 0.029635548749010646 2291.0000000000005 -0.024438067250335035 1014.0000000000001 2223.0000000000005 1762.5000000000002
decision_type=2 2 2 2 2 2 2 2
left_child=1 4 3 -3 6 -6 -1 -7
right_child=-2 2 -4 -5 5 7 -8 -9
leaf_value=-34.747705841064452 43.582832497816824 -14.633356672525407 30.467553558132863 14.26958572008671 -21.693826652526855 -8.3761667084693912 -18.815999785713526 -0.047838405370712281
leaf_weight=23 26 24 22 39 25 20 23 30
leaf_count=23 26 24 22 39 25 20 23 30
internal_value=0 -5.18286 10.3012 3.25894 -16.0601 -9.48406 -26.7819 -3.37917
internal_weight=0 206 85 63 121 75 46 50
internal_count=232 206 85 63 121 75 46 50
is_linear=0
shrinkage=0.05


Tree=13
num_leaves=9
num_cat=0
split_feature=13 6 8 1 13 8 13 5
split_gain=1.99681e+07 7.95026e+06 7.75267e+06 3.47513e+06 2.72031e+06 2.04423e+06 927194 573594
threshold=0.053377728464598102 2219.3571428571436 2010.1785714285718 1.0000000180025095e-35 -0.001043268119326368 2548.2500000000005 -0.07709885568308332 1847.5000000000002
decision_type=2 2 2 2 2 2 2 2
left_child=1 4 -2 5 6 -3 -1 -6
right_child=2 3 -4 -5 7 -7 -8 -9
leaf_value=-31.582476598566231 6.9878668727874755 0.53785133361816406 45.295430830546792 -11.428085420348429 -12.314081455652531 21.021670302029314 -18.684318868737474 -1.2038048358190627
leaf_weight=22 25 21 28 22 26 29 38 21
leaf_count=22 25 21 28 22 26 29 38 21
internal_value=0 -7.71374 27.2258 5.13202 -16.3576 12.4185 -23.4136 -7.34992
internal_weight=0 179 53 72 107 50 60 47
internal_count=232 179 53 72 107 50 60 47
is_linear=0
shrinkage=0.05


Tree=14
num_leaves=9
num_cat=0
split_feature=13 8 13 4 13 4 13 4
split_gain=1.84551e+07 8.3557e+06 4.71136e+06 4.00154e+06 3.9408e+06 2.7783e+06 2.59145e+06 891466
threshold=0.11236564099839387 2535.0714285714289 -0.001043268119326368 1762.5000000000002 -0.0059921174676646474 1972.5000000000002 -0.07709885568308332 1014.0000000000001
decision_type=2 2 2 2 2 2 2 2
left_child=1 2 5 7 -3 -1 -7 -4
right_child=-2 4 3 -5 -6 6 -8 -9
leaf_value=-35.070869591122587 39.94927154320937 -0.45456702995758791 -17.745019805908203 11.55246166214347 27.642115688820681 -27.084341430664065 -4.3358644039400165 -4.5213882317909828
leaf_weight=21 26 26 25 32 24 21 31 26
leaf_count=21 26 26 25 32 24 21 31 26
internal_value=0 -4.75525 -10.4562 -2.30726 13.0318 -19.7215 -13.5227 -11.0036
internal_weight=0 206 156 83 50 73 52 51
internal_count=232 206 156 83 50 73 52 51
is_linear=0
shrinkage=0.05


Tree=15
num_leaves=8
num_cat=0
split_feature=6 1 7 4 3 0 10
split_gain=1.30483e+07 6.02766e+06 1.28628e+06 1.22943e+06 1.27173e+06 1.00344e+06 840045
threshold=2204.5000000000005 1.0000000180025095e-35 827.03719301941703 1925.0000000000002 1946.0000000000002 119.50000000000001 1815.3000000000002
decision_type=2 2 2 2 2 2 2
left_child=3 2 -2 6 -5 -4 -1
right_child=1 -3 5 4 -6 -7 -8
leaf_value=-21.589083615055792 13.64360162946913 -5.1591119523559303 35.40876430329822 -10.525943373406635 5.3635712525248529 20.291638764091161 -9.9221048699484928
leaf_weight=27 27 28 21 34 20 23 36
leaf_count=27 27 28 21 34 20 23 36
internal_value=0 14.487 22.2348 -10.177 -4.64094 27.5066 -14.9222
internal_weight=0 99 71 117 54 44 63
internal_count=216 99 71 117 54 44 63
is_linear=0
shrinkage=0.05


Tree=16
num_leaves=7
num_cat=0
split_feature=13 6 7 13 6 7
split_gain=1.9761e+07 6.01059e+06 5.93238e+06 2.59516e+06 2.30472e+06 636361
threshold=0.045737884986942097 2699.5714285714289 790.94526637068168 -0.062334073624167922 2116.7142857142858 590.02917327221439
decision_type=2 2 2 2 2 2
left_child=1 3 -2 -1 5 -5
right_child=2 -3 -4 4 -6 -7
leaf_value=-24.234357250098029 4.800390405654908 14.643723472595216 38.763878557417129 -8.5934186180122207 2.0731923894749751 -18.41721236004549
leaf_weight=33 20 25 36 32 36 34
leaf_count=33 20 25 36 32 36 34
internal_value=0 -7.87613 26.6341 -12.0465 -8.10333 -13.6542
internal_weight=0 160 56 135 102 66
internal_count=216 160 56 135 102 66
is_linear=0
shrinkage=0.05


Tree=17
num_leaves=8
num_cat=0
split_feature=6 1 4 3 6 10 7
split_gain=1.08174e+07 5.33008e+06 1.18176e+06 1.06231e+06 1.05777e+06 748068 470563
threshold=2204.5000000000005 1.0000000180025095e-35 1925.0000000000002 1946.0000000000002 2526.928571428572 1815.3000000000002 917.23020362017667
decision_type=2 2 2 2 2 2 2
left_child=2 4 5 -4 -2 -1 -6
right_child=1 -3 3 -5 6 -7 -8
leaf_value=-20.21890116179431 13.122688293457031 -5.2928308248519897 -9.2262656313531544 5.2961214780807495 30.584508391943842 -9.2091445883115135 19.987647914886477
leaf_weight=27 29 28 34 20 22 36 20
leaf_count=27 29 28 34 20 22 36 20
internal_value=0 13.1815 -9.2753 -3.8476 20.4672 -13.9276 25.5384
internal_weight=0 99 117 54 71 63 42
internal_count=216 99 117 54 71 63 42
is_linear=0
shrinkage=0.05


Tree=18
num_leaves=8
num_cat=0
split_feature=13 4 4 13 13 4 10
split_gain=1.76794e+07 8.52937e+06 8.07957e+06 4.92439e+06 3.45263e+06 1.87551e+06 266054
threshold=0.045737884986942097 1792.5000000000002 2291.0000000000005 -0.037154853201491082 -0.024438067250335035 1358.0000000000002 1868.5000000000002
decision_type=2 2 2 2 2 2 2
left_child=2 -2 4 -4 -1 -6 -7
right_child=1 -3 3 -5 5 6 -8
leaf_value=-29.188344170706614 10.030719643320356 50.337563432965965 -6.3598999622889929 21.501508344452958 -22.040484409332279 0.5663725498176756 -7.4915332269668582
leaf_weight=35 35 21 35 29 20 21 20
leaf_count=35 35 21 35 29 20 21 20
internal_value=0 25.1458 -7.4962 6.2648 -16.6702 -9.48765 -3.36431
internal_weight=0 56 160 64 96 61 41
internal_count=216 56 160 64 96 61 41
is_linear=0
shrinkage=0.05


Tree=19
num_leaves=9
num_cat=0
split_feature=13 4 4 13 13 4 13 10
split_gain=1.59556e+07 7.69776e+06 7.29182e+06 4.56481e+06 3.116e+06 1.69265e+06 1.22978e+06 240114
threshold=0.045737884986942097 1792.5000000000002 2291.0000000000005 -0.066617460289758776 -0.024438067250335035 1358.0000000000002 -0.028822779231689296 1868.5000000000002
decision_type=2 2 2 2 2 2 2 2
left_child=2 -2 4 -4 -1 -6 -5 -7
right_child=1 -3 3 6 5 7 -8 -9
leaf_value=-27.728927240371707 9.5291837444049978 47.820685032435826 -13.156466765630814 6.6287020229157951 -20.938460407257082 0.53805387516816461 23.544679013165563 -7.116956548690796
leaf_weight=35 35 21 21 21 20 21 22 20
leaf_count=35 35 21 21 21 20 21 22 20
internal_value=0 23.8885 -7.12139 5.95156 -15.8367 -9.01327 15.2834 -3.1961
internal_weight=0 56 160 64 96 61 43 41
internal_count=216 56 160 64 96 61 43 41
is_linear=0
shrinkage=0.05


Tree=20
num_leaves=10
num_cat=0
split_feature=13 6 13 13 4 13 4 6 13
split_gain=1.23816e+07 5.3854e+06 2.81198e+06 2.63778e+06 2.74052e+06 2.52068e+06 2.38549e+06 924260 448835
threshold=0.11236564099839387 2204.5000000000005 -0.07709885568308332 0.029635548749010646 3205.5000000000005 -0.0097525768667295881 1635.0000000000002 1726.4285714285718 -0.012534094394425486
decision_type=2 2 2 2 2 2 2 2 2
left_child=1 2 -1 4 5 -3 7 -4 -8
right_child=-2 3 6 -5 -6 -7 8 -9 -10
leaf_value=-27.264689545404345 34.576218862118928 -20.127254304885867 -23.976361222267151 19.237801811218262 14.89080534435454 4.1435452710027283 -5.5555486627987456 -9.6793836845801433 2.992969179679366
leaf_weight=21 23 20 20 25 21 23 28 26 34
leaf_count=21 23 20 20 25 21 23 28 26 34
internal_value=0 -3.99604 -10.5236 5.46526 0.0853651 -7.1452 -7.26839 -15.8955 -0.867652
internal_weight=0 218 129 89 64 43 108 46 62
internal_count=241 218 129 89 64 43 108 46 62
is_linear=0
shrinkage=0.05


Tree=21
num_leaves=9
num_cat=0
split_feature=13 6 13 13 4 4 13 13
split_gain=1.11744e+07 4.86033e+06 2.53782e+06 2.43153e+06 3.73273e+06 2.1529e+06 908200 405074
threshold=0.11236564099839387 2204.5000000000005 -0.07709885568308332 -0.031189992859142642 2404.5000000000005 1635.0000000000002 0.024818377485668067 -0.012534094394425486
decision_type=2 2 2 2 2 2 2 2
left_child=1 2 -1 -3 -5 6 -4 -7
right_child=-2 3 5 4 -6 7 -8 -9
leaf_value=-25.901455245983033 32.847408120528513 -6.1124071182743194 -21.539734695434571 1.3181782974137199 27.459917796741834 -5.2777711357389183 -7.4351557552814489 2.8433206992990829
leaf_weight=21 23 31 25 36 22 28 21 34
leaf_count=21 23 31 25 36 22 28 21 34
internal_value=0 -3.79623 -9.99742 5.192 11.234 -6.90497 -15.1007 -0.824269
internal_weight=0 218 129 89 58 108 46 62
internal_count=241 218 129 89 58 108 46 62
is_linear=0
shrinkage=0.05


Tree=22
num_leaves=11
num_cat=0
split_feature=13 6 13 13 4 13 4 7 13 11
split_gain=1.00849e+07 4.38644e+06 2.35316e+06 2.31831e+06 2.51338e+06 1.87521e+06 1.6299e+06 631035 470679 114528
threshold=0.11236564099839387 2204.5000000000005 -0.043448549576014954 0.029635548749010646 3097.5000000000005 -0.007090476129840261 1558.0000000000002 599.78806515909957 0.024818377485668067 706.18152734776038
decision_type=2 2 2 2 2 2 2 2 2 2
left_child=1 2 7 4 5 -3 8 -1 -4 -8
right_child=-2 3 6 -5 -6 -7 9 -9 -10 -11
leaf_value=-13.290603971481325 31.205037917261542 -18.48967381000519 -17.781051483154297 17.84401876449585 13.118117971005649 2.9028514544169113 -0.78087750545569834 -25.850812187194823 -7.0633980092548185 4.1730871820449833
leaf_weight=20 23 20 20 25 23 21 28 20 21 20
leaf_count=20 23 20 20 25 23 21 28 20 21 20
internal_value=0 -3.60642 -9.49755 4.9324 -0.111201 -7.53253 -4.97028 -19.5707 -12.2915 1.28327
internal_weight=0 218 129 89 64 41 89 40 41 48
internal_count=241 218 129 89 64 41 89 40 41 48
is_linear=0
shrinkage=0.05


Tree=23
num_leaves=10
num_cat=0
split_feature=13 13 8 10 1 9 11 13 8
split_gain=9.10162e+06 3.9825e+06 3.78751e+06 1.63229e+06 1.04521e+06 743099 664326 555330 528457
threshold=0.11236564099839387 -0.031189992859142642 2142.0000000000005 2027.1500000000003 1.0000000180025095e-35 764.8055703843504 960.48024609782203 0.027323530546507716 1744.2142857142858
decision_type=2 2 2 2 2 2 2 2 2
left_child=1 3 5 -1 7 8 -5 -4 -3
right_child=-2 2 4 6 -6 -7 -8 -9 -10
leaf_value=-21.203969979286196 29.644785874822869 -7.8019423416682656 9.5223950653076184 -0.7494299491246541 1.3879003167800281 -14.279409449441093 -12.926742565064202 20.700466632843018 2.3090025891860324
leaf_weight=32 23 28 25 24 23 21 21 20 24
leaf_count=32 23 28 25 24 23 21 21 20 24
internal_value=0 -3.4261 1.56798 -12.5711 10.0587 -6.34118 -6.43218 14.4904 -3.13535
internal_weight=0 218 141 77 68 73 45 45 52
internal_count=241 218 141 77 68 73 45 45 52
is_linear=0
shrinkage=0.05


Tree=24
num_leaves=9
num_cat=0
split_feature=13 4 8 4 13 13 4 7
split_gain=8.24203e+06 8.75095e+06 3.1995e+06 1.71798e+06 2.20658e+06 1.94799e+06 750568 525545
threshold=0.029635548749010646 1558.0000000000002 2660.0714285714289 1909.5000000000002 -0.06330608401226738 -0.001043268119326368 2256.5000000000005 705.354451372374
decision_type=2 2 2 2 2 2 2 2
left_child=2 7 3 5 -5 -1 -6 -2
right_child=1 -3 -4 4 6 -7 -8 -9
leaf_value=-28.339194523204458 -7.5776006403423501 32.254951578028063 8.3080393298467001 -16.515027230785741 -4.3879201673172616 -7.7412069797515874 7.2742354999889036 3.7475078532099726
leaf_weight=22 21 34 30 31 37 24 22 20
leaf_count=22 21 34 30 31 37 24 22 20
internal_value=0 13.4999 -6.47166 -9.73189 -5.71429 -17.5924 -0.0393197 -2.05316
internal_weight=0 75 166 136 90 46 59 41
internal_count=241 75 166 136 90 46 59 41
is_linear=0
shrinkage=0.05


Tree=25
num_leaves=9
num_cat=0
split_feature=13 4 13 13 4 13 4 4
split_gain=7.16451e+06 6.42998e+06 3.70848e+06 3.01422e+06 1.58387e+06 1.30559e+06 759340 106601
threshold=0.066602177232249385 2291.0000000000005 -0.025542869792943065 -0.001043268119326368 1223.5000000000002 -0.082738643662216935 1925.0000000000002 1925.0000000000002
decision_type=2 2 2 2 2 2 2 2
left_child=1 3 5 6 -5 -3 -1 -6
right_child=-2 2 -4 4 7 -7 -8 -9
leaf_value=-27.949901504516603 20.163062833484851 -9.9866141080856323 23.506746645927432 -15.739253120422365 -1.1048170775175095 6.619078234968514 -15.285867753522149 3.7731749074799676
leaf_weight=20 38 20 25 20 24 29 29 21
leaf_count=20 38 20 25 20 24 29 29 21
internal_value=0 -3.64076 7.83635 -11.0908 -4.03175 -0.158755 -20.4549 1.17158
internal_weight=0 188 74 114 65 49 49 45
internal_count=226 188 74 114 65 49 49 45
is_linear=0
shrinkage=0.05


Tree=26
num_leaves=9
num_cat=0
split_feature=13 4 13 13 4 4 4 13
split_gain=6.47206e+06 5.40079e+06 3.52193e+06 2.92929e+06 1.47666e+06 1.33948e+06 807097 218985
threshold=0.078702835136775798 2404.5000000000005 -0.025542869792943065 -0.001043268119326368 1223.5000000000002 3482.0000000000005 1925.0000000000002 0.034708868945906531
decision_type=2 2 2 2 2 2 2 2
left_child=1 3 5 6 -5 -3 -1 -6
right_child=-2 2 -4 4 7 -7 -8 -9
leaf_value=-26.552406387329103 20.806079720005847 -7.1909418037959512 23.32673625946045 -14.059793417794365 -1.1073792468224253 9.7510530281066892 -13.669252970910842 5.6470195270719987
leaf_weight=20 33 28 24 21 28 20 31 21
leaf_count=20 33 28 24 21 28 20 31 21
internal_value=0 -3.1552 7.68773 -9.60719 -2.96678 -0.131777 -18.7215 1.78736
internal_weight=0 193 72 121 70 48 51 49
internal_count=226 193 72 121 70 48 51 49
is_linear=0
shrinkage=0.05


Tree=27
num_leaves=9
num_cat=0
split_feature=13 8 13 13 7 7 8 10
split_gain=5.87152e+06 3.28377e+06 1.88744e+06 1.00835e+06 765686 557746 415127 101812
threshold=0.099536960609184391 2535.0714285714289 -0.007090476129840261 -0.012534094394425486 652.67170004563172 868.62534416395238 1988.7857142857144 1928.2833333333335
decision_type=2 2 2 2 2 2 2 2
left_child=1 2 4 -3 -1 6 -4 -6
right_child=-2 3 5 -5 7 -7 -8 -9
leaf_value=-6.0931311535835269 24.26920799587084 1.7505136171976727 -0.19927801199448414 15.686093399047852 -19.182727117538452 6.3244482910633089 -8.7890574541958895 -14.137629108428957
leaf_weight=30 23 27 39 25 20 20 22 20
leaf_count=30 23 27 39 25 20 20 22 20
internal_value=0 -2.38634 -6.11817 8.45031 -12.1314 -0.921508 -3.29723 -16.6602
internal_weight=0 203 151 52 70 81 61 40
internal_count=226 203 151 52 70 81 61 40
is_linear=0
shrinkage=0.05


Tree=28
num_leaves=8
num_cat=0
split_feature=13 4 13 13 4 13 13
split_gain=5.34938e+06 5.1377e+06 2.91459e+06 2.31408e+06 1.27108e+06 1.0769e+06 390714
threshold=0.066602177232249385 2291.0000000000005 -0.082738643662216935 -0.020592879721538834 1114.0000000000002 -0.025542869792943065 0.0056801777462968115
decision_type=2 2 2 2 2 2 2
left_child=1 3 -3 -1 -5 -4 -6
right_child=-2 2 5 4 6 -7 -8
leaf_value=-20.9685579588919 17.420263611642937 -9.1943499574065211 6.5938398887371195 -15.848044331868492 -5.8687522066490994 20.754577537536623 2.2188793972134593
leaf_weight=33 38 20 29 21 28 25 32
leaf_count=33 38 20 29 21 28 25 32
internal_value=0 -3.14837 7.11079 -9.80783 -5.26086 13.1497 -1.55535
internal_weight=0 188 74 114 81 54 60
internal_count=226 188 74 114 81 54 60
is_linear=0
shrinkage=0.05


Tree=29
num_leaves=9
num_cat=0
split_feature=13 4 13 13 4 4 4 13
split_gain=4.90793e+06 4.42943e+06 3.19742e+06 2.67834e+06 1.33479e+06 1.20464e+06 657348 387019
threshold=0.099536960609184391 2330.5000000000005 -0.025542869792943065 -0.001043268119326368 1114.0000000000002 3482.0000000000005 1925.0000000000002 0.037791284163752333
decision_type=2 2 2 2 2 2 2 2
left_child=1 3 5 6 -5 -3 -1 -6
right_child=-2 2 -4 4 7 -7 -8 -9
leaf_value=-23.857012252807621 22.184734377653704 -6.3683375942296001 22.116612632751469 -11.599772369384766 -1.2717518329620363 9.5824715232849123 -12.154555071194968 7.288538480323294
leaf_weight=20 23 29 25 25 31 20 30 23
leaf_count=20 23 29 25 25 31 20 30 23
internal_value=0 -2.1856 7.56599 -7.77953 -2.04788 0.142197 -16.8355 2.3743
internal_weight=0 203 74 129 79 49 50 54
internal_count=226 203 74 129 79 49 50 54
is_linear=0
shrinkage=0.05


Tree=30
num_leaves=9
num_cat=0
split_feature=6 4 9 6 3 3 9 9
split_gain=4.93894e+06 1.67338e+06 1.3561e+06 721369 628105 751934 612067 139720
threshold=2526.928571428572 1635.0000000000002 1023.024824533174 1676.1428571428576 2387.0000000000005 1972.5000000000002 874.32510443749732 718.16890079670532
decision_type=2 2 2 2 2 2 2 2
left_child=1 3 -2 -1 5 6 7 -3
right_child=2 4 -4 -5 -6 -7 -8 -9
leaf_value=-18.314945614856224 6.8703429234333528 -1.8724799585342407 22.884172328710559 -6.8497163232635048 -8.7706008502415251 7.0025000624358658 -9.6301252651214604 4.03768871307373
leaf_weight=23 39 20 20 34 21 32 20 20
leaf_count=23 39 20 20 34 21 32 20 20
internal_value=0 -4.49138 12.2988 -11.476 -0.96815 0.812844 -2.48831 1.0826
internal_weight=0 170 59 57 113 92 60 40
internal_count=229 170 59 57 113 92 60 40
is_linear=0
shrinkage=0.05


Tree=31
num_leaves=9
num_cat=0
split_feature=6 4 9 6 3 3 9 9
split_gain=4.4574e+06 1.51023e+06 1.22388e+06 651035 566864 678620 552391 126098
threshold=2526.928571428572 1635.0000000000002 1023.024824533174 1676.1428571428576 2387.0000000000005 1972.5000000000002 874.32510443749732 718.16890079670532
decision_type=2 2 2 2 2 2 2 2
left_child=1 3 -2 -1 5 6 7 -3
right_child=2 4 -4 -5 -6 -7 -8 -9
leaf_value=-17.399198252221815 6.52682574895712 -1.7788558626174926 21.739963989257816 -6.5072305511025821 -8.3320707071395148 6.6523752599954609 -9.1486190414428705 3.8358043146133429
leaf_weight=23 39 20 20 34 21 32 20 20
leaf_count=23 39 20 20 34 21 32 20 20
internal_value=0 -4.26681 11.6838 -10.9022 -0.919742 0.772202 -2.36389 1.02847
internal_weight=0 170 59 57 113 92 60 40
internal_count=229 170 59 57 113 92 60 40
is_linear=0
shrinkage=0.05


Tree=32
num_leaves=10
num_cat=0
split_feature=13 4 13 13 4 4 13 13 6
split_gain=6.31064e+06 2.28866e+06 2.80736e+06 2.16566e+06 1.81433e+06 1.43189e+06 625490 597830 216569
threshold=0.099536960609184391 2548.5000000000005 -0.028822779231689296 -0.055395323830576319 1635.0000000000002 3482.0000000000005 0.0083964874353087433 0.024818377485668067 1874.0000000000002
decision_type=2 2 2 2 2 2 2 2 2
left_child=1 3 5 -1 7 -3 8 -5 -6
right_child=-2 2 -4 4 6 -7 -8 -9 -10
leaf_value=-21.561069342068265 22.553580718570288 -10.985173710532811 20.197753582000733 -16.982165932655334 1.7417427528988232 7.3076410102844243 8.6809847784042358 -6.136491425832113 -5.0602426300048826
leaf_weight=21 27 23 20 24 22 20 20 27 25
leaf_count=21 27 23 20 24 22 20 20 27 25
internal_value=0 -3.18395 4.72141 -6.76696 -4.13411 -2.47689 1.2751 -11.2403 -1.87633
internal_weight=0 202 63 139 118 43 67 51 47
internal_count=229 202 63 139 118 43 67 51 47
is_linear=0
shrinkage=0.05


Tree=33
num_leaves=10
num_cat=0
split_feature=13 4 13 13 4 4 13 13 6
split_gain=5.69535e+06 2.06551e+06 2.53365e+06 1.9545e+06 1.63743e+06 1.29228e+06 564505 539542 195453
threshold=0.099536960609184391 2548.5000000000005 -0.028822779231689296 -0.055395323830576319 1635.0000000000002 3482.0000000000005 0.0083964874353087433 0.024818377485668067 1874.0000000000002
decision_type=2 2 2 2 2 2 2 2 2
left_child=1 3 5 -1 7 -3 8 -5 -6
right_child=-2 2 -4 4 6 -7 -8 -9 -10
leaf_value=-20.483015432811921 21.425901759553838 -10.435915132190871 19.187865897417069 -16.133057355880737 1.6546556288545784 6.9422588920593258 8.2469354367256162 -5.829666958376766 -4.8072304611206063
leaf_weight=21 27 23 20 24 22 20 20 27 25
leaf_count=21 27 23 20 24 22 20 20 27 25
internal_value=0 -3.02476 4.48534 -6.42861 -3.92741 -2.35304 1.21135 -10.6783 -1.78252
internal_weight=0 202 63 139 118 43 67 51 47
internal_count=229 202 63 139 118 43 67 51 47
is_linear=0
shrinkage=0.05


Tree=34
num_leaves=9
num_cat=0
split_feature=13 4 13 13 4 13 13 6
split_gain=5.14006e+06 1.86413e+06 2.32752e+06 1.76394e+06 1.4819e+06 504048 502661 180245
threshold=0.099536960609184391 2548.5000000000005 -0.043448549576014954 -0.055395323830576319 1710.5000000000002 0.0060478131342890382 0.024818377485668067 1874.0000000000002
decision_type=2 2 2 2 2 2 2 2
left_child=1 3 -3 -1 6 7 -5 -6
right_child=-2 2 -4 4 5 -7 -8 -9
leaf_value=-19.458864965892975 20.354606642546479 -3.7951655671403217 15.725721370256863 -15.089482616424561 1.6359074320111955 7.7019364232108707 -5.3351767565522881 -4.7710876879484756
leaf_weight=21 27 37 26 25 21 21 28 23
leaf_count=21 27 37 26 25 21 21 28 23
internal_value=0 -2.87352 4.26107 -6.10718 -3.73104 1.32861 -9.93626 -1.7132
internal_weight=0 202 63 139 118 65 53 44
internal_count=229 202 63 139 118 65 53 44
is_linear=0
shrinkage=0.05


Tree=35
num_leaves=8
num_cat=0
split_feature=13 13 4 13 9 4 6
split_gain=3.69419e+06 1.85018e+06 2.82168e+06 1.04108e+06 564178 522245 403905
threshold=0.099536960609184391 -0.07709885568308332 2291.0000000000005 -0.001043268119326368 874.32510443749732 1308.0000000000002 2598.7857142857151
decision_type=2 2 2 2 2 2 2
left_child=1 -1 3 -3 5 -5 -4
right_child=-2 2 6 4 -6 -7 -8
leaf_value=-14.240147230360243 17.649274794260659 -11.058979176252317 13.849473575183325 -10.032126457691193 6.2096490812301646 0.15026230373803307 4.6763166382199248
leaf_weight=27 27 39 28 20 20 34 21
leaf_count=27 27 39 28 20 20 34 21
internal_value=0 -2.12242 -0.102796 -4.44815 -0.964063 -3.62099 9.91812
internal_weight=0 189 162 113 74 54 49
internal_count=216 189 162 113 74 54 49
is_linear=0
shrinkage=0.05


Tree=36
num_leaves=8
num_cat=0
split_feature=13 13 11 8 6 5 5
split_gain=3.33401e+06 1.66978e+06 1.38281e+06 431493 418319 286569 168928
threshold=0.099536960609184391 -0.07709885568308332 854.70284290239726 2641.2857142857147 2285.7142857142867 1820.5000000000002 2001.0000000000002
decision_type=2 2 2 2 2 2 2
left_child=1 -1 5 4 -4 -3 -7
right_child=-2 2 3 -5 -6 6 -8
leaf_value=-13.528140004475913 16.766810846701265 -8.5163963089386634 5.611729240417481 9.3422821998596195 -2.92666688148792 0.60041097661723264 -5.6827268135547646
leaf_weight=27 27 33 32 28 26 23 20
leaf_count=27 27 33 32 28 26 23 20
internal_value=0 -2.0163 -0.0976559 4.24495 1.78417 -5.01166 -2.32198
internal_weight=0 189 162 86 58 76 43
internal_count=216 189 162 86 58 76 43
is_linear=0
shrinkage=0.05


Tree=37
num_leaves=9
num_cat=0
split_feature=13 4 13 13 4 13 0 13
split_gain=3.00894e+06 1.5712e+06 1.90193e+06 1.56721e+06 490222 505661 277530 114523
threshold=0.099536960609184391 2291.0000000000005 -0.066617460289758776 -0.045855806445474205 1174.5000000000002 0.034708868945906531 176.50000000000003 -0.028822779231689296
decision_type=2 2 2 2 2 2 2 2
left_child=1 3 -3 -1 -5 6 -6 -4
right_child=-2 2 7 4 5 -7 -8 -9
leaf_value=-17.721992002214705 15.928470774050112 -6.6827867736816406 8.1247788565499448 -8.3343934093202865 -7.6941277549380347 5.783478648012335 -0.19967965817699829 13.346603398095993
leaf_weight=21 27 25 21 28 21 22 30 21
leaf_count=21 27 25 21 28 21 22 30 21
internal_value=0 -1.91548 4.23626 -5.2939 -2.70984 -0.552473 -3.28563 10.7357
internal_weight=0 189 67 122 101 73 51 42
internal_count=216 189 67 122 101 73 51 42
is_linear=0
shrinkage=0.05


Tree=38
num_leaves=9
num_cat=0
split_feature=13 4 13 13 4 13 0 6
split_gain=2.71557e+06 1.41801e+06 1.71649e+06 1.41441e+06 442426 456359 250471 145306
threshold=0.099536960609184391 2291.0000000000005 -0.066617460289758776 -0.045855806445474205 1174.5000000000002 0.034708868945906531 176.50000000000003 2505.428571428572
decision_type=2 2 2 2 2 2 2 2
left_child=1 3 -3 -1 -5 6 -6 -4
right_child=-2 2 7 4 5 -7 -8 -9
leaf_value=-16.835892459324427 15.132047088057906 -6.3486473846435549 13.283402898311616 -7.9176740663392211 -7.3094214791343326 5.4943047469312498 -0.18969563692808153 7.3948194937272511
leaf_weight=21 27 25 20 28 21 22 30 22
leaf_count=21 27 25 20 28 21 22 30 22
internal_value=0 -1.81971 4.02445 -5.0292 -2.57435 -0.52485 -3.12135 10.1989
internal_weight=0 189 67 122 101 73 51 42
internal_count=216 189 67 122 101 73 51 42
is_linear=0
shrinkage=0.05


Tree=39
num_leaves=8
num_cat=0
split_feature=6 13 13 4 13 7 4
split_gain=2.48435e+06 2.20166e+06 1.4884e+06 2.17168e+06 863153 752803 935610
threshold=2526.928571428572 0.027323530546507716 -0.07709885568308332 2256.5000000000005 -0.001043268119326368 790.94526637068168 1243.0000000000002
decision_type=2 2 2 2 2 2 2
left_child=2 -2 -1 4 -4 6 -6
right_child=1 -3 3 -5 5 -7 -8
leaf_value=-13.677081423539384 0.88096609834966988 21.856839607791471 -10.823748805513606 11.269716964960098 -12.964928158521653 6.0766503953933722 0.82077803257852799
leaf_weight=26 29 22 32 30 20 25 32
leaf_count=26 29 22 32 30 20 25 32
internal_value=0 9.92938 -2.69691 -0.643064 -3.92181 -1.05347 -4.48142
internal_weight=0 51 165 139 109 77 52
internal_count=216 51 165 139 109 77 52
is_linear=0
shrinkage=0.05


Tree=40
num_leaves=8
num_cat=0
split_feature=13 8 13 4 13 4 13
split_gain=5.28007e+06 1.70551e+06 880032 877800 1.24787e+06 780306 311998
threshold=0.11983285152660329 2535.0714285714289 -0.028822779231689296 1174.5000000000002 -0.062334073624167922 2012.0000000000002 0.0056801777462968115
decision_type=2 2 2 2 2 2 2
left_child=1 3 -3 -1 -5 6 -6
right_child=-2 2 -4 4 5 -7 -8
leaf_value=-11.868352370791966 24.532598934173585 -2.7869396424293522 10.583045389316977 -11.54065759720341 -7.0016559853617641 6.8373416769093485 0.39789773297720943
leaf_weight=36 20 20 32 31 28 29 29
leaf_count=36 20 20 32 31 28 29 29
internal_value=0 -2.38208 5.44074 -5.04082 -2.94004 0.160181 -3.23697
internal_weight=0 205 52 153 117 86 57
internal_count=225 205 52 153 117 86 57
is_linear=0
shrinkage=0.05


Tree=41
num_leaves=8
num_cat=0
split_feature=13 8 13 4 13 4 13
split_gain=4.76526e+06 1.53922e+06 794229 792214 1.1262e+06 704227 281578
threshold=0.11983285152660329 2535.0714285714289 -0.028822779231689296 1174.5000000000002 -0.062334073624167922 2012.0000000000002 0.0056801777462968115
decision_type=2 2 2 2 2 2 2
left_child=1 3 -3 -1 -5 6 -6
right_child=-2 2 -4 4 5 -7 -8
leaf_value=-11.274934807750915 23.305968751907351 -2.6475926947593691 10.05389293730259 -10.963624529684743 -6.6515731219734464 6.4954746299776538 0.37800288151564271
leaf_weight=36 20 20 32 31 28 29 29
leaf_count=36 20 20 32 31 28 29 29
internal_value=0 -2.26298 5.16871 -4.78878 -2.79304 0.152172 -3.07512
internal_weight=0 205 52 153 117 86 57
internal_count=225 205 52 153 117 86 57
is_linear=0
shrinkage=0.05


Tree=42
num_leaves=8
num_cat=0
split_feature=13 8 9 13 13 0 7
split_gain=4.30065e+06 1.38914e+06 976280 716792 547917 267026 185635
threshold=0.11983285152660329 2535.0714285714289 933.66453793356891 -0.028822779231689296 0.029635548749010646 179.50000000000003 519.88429738501986
decision_type=2 2 2 2 2 2 2
left_child=1 2 4 -3 5 -1 -7
right_child=-2 3 -4 -5 -6 6 -8
leaf_value=-1.3081511710141156 22.140670460462573 -2.5152131390571597 -13.809120398759843 9.5511983007192622 2.967227627312945 -3.0195585207505662 -8.7636498435949672
leaf_weight=37 20 20 24 32 31 22 39
leaf_count=37 20 20 24 32 31 22 39
internal_value=0 -2.14983 -4.54934 4.91027 -2.82659 -4.65933 -6.69201
internal_weight=0 205 153 52 129 98 61
internal_count=225 205 153 52 129 98 61
is_linear=0
shrinkage=0.05


Tree=43
num_leaves=8
num_cat=0
split_feature=13 4 13 13 7 4 8
split_gain=3.88134e+06 1.38316e+06 2.49739e+06 924712 1.65192e+06 698915 317225
threshold=0.11983285152660329 1558.0000000000002 0.016260538665046401 -0.047988820754693844 771.82781821524065 2131.5000000000005 1821.2857142857144
decision_type=2 2 2 2 2 2 2
left_child=1 6 3 4 -3 -5 -1
right_child=-2 2 -4 5 -6 -7 -8
leaf_value=-12.420391151822848 21.033637313842775 1.4609355983734131 13.347793441216153 -4.0120473086833952 -16.375738369977032 6.126082604772904 -4.8145126700401306
leaf_weight=29 20 25 30 34 27 34 26
leaf_count=29 20 25 30 34 27 34 26
internal_value=0 -2.04234 0.444596 -2.7812 -7.80041 1.05702 -8.82488
internal_weight=0 205 150 120 52 68 55
internal_count=225 205 150 120 52 68 55
is_linear=0
shrinkage=0.05


Tree=44
num_leaves=9
num_cat=0
split_feature=13 4 13 13 13 4 4 6
split_gain=3.50291e+06 1.27429e+06 2.53716e+06 832458 560882 532944 467136 387474
threshold=0.11983285152660329 1925.0000000000002 0.016260538665046401 -0.047988820754693844 -0.001043268119326368 2131.5000000000005 2975.5000000000005 1957.4285714285718
decision_type=2 2 2 2 2 2 2 2
left_child=1 4 3 6 -1 -5 -3 -6
right_child=-2 2 -4 5 7 -7 -8 -9
leaf_value=-14.027482317742846 19.981955127716066 -12.738876767385575 16.139097981867582 -3.6897740911978945 -1.1237231380799237 5.8197784774443688 -2.6232930374145509 -9.7619239494914112
leaf_weight=21 20 21 23 26 34 34 25 21
leaf_count=21 20 21 23 26 34 34 25 21
internal_value=0 -1.94022 1.08557 -2.18076 -7.07611 1.69897 -7.24128 -4.42195
internal_weight=0 205 129 106 76 60 46 55
internal_count=225 205 129 106 76 60 46 55
is_linear=0
shrinkage=0.05


Tree=45
num_leaves=10
num_cat=0
split_feature=13 4 4 13 0 4 3 4 0
split_gain=2.0077e+06 5.22745e+06 2.76541e+06 972125 452889 886847 408923 344280 87653.2
threshold=0.045737884986942097 1558.0000000000002 3482.0000000000005 -0.07709885568308332 50.500000000000007 1558.0000000000002 2683.5000000000005 2131.5000000000005 222.50000000000003
decision_type=2 2 2 2 2 2 2 2 2
left_child=2 -2 3 -1 -5 -6 7 8 -7
right_child=1 -3 -4 4 5 6 -8 -9 -10
leaf_value=-14.006570255472548 -5.3966272403453956 25.478619890946611 15.323261052086242 4.1189862337979406 -12.492726520870043 -4.4703283732587646 -7.8404992961883551 5.2877543635990314 -0.21866699501320169
leaf_weight=21 29 26 21 22 23 22 20 23 27
leaf_count=21 29 26 21 22 23 22 20 23 27
internal_value=0 9.19894 -1.7235 -3.98921 -2.45371 -3.71109 -1.51568 0.24121 -2.12758
internal_weight=0 55 179 158 137 115 92 72 49
internal_count=234 55 179 158 137 115 92 72 49
is_linear=0
shrinkage=0.05


Tree=46
num_leaves=9
num_cat=0
split_feature=13 6 10 7 0 1 8 7
split_gain=1.81195e+06 2.26577e+06 830314 1.2098e+06 617272 196793 160776 195339
threshold=0.045737884986942097 2285.7142857142867 2620.1000000000004 917.23020362017667 50.500000000000007 1.0000000180025095e-35 1767.3214285714287 649.71327188316343
decision_type=2 2 2 2 2 2 2 2
left_child=2 -2 3 4 -1 6 -6 -8
right_child=1 -3 -4 -5 5 -7 7 -9
leaf_value=7.0147183554513122 -1.5956077063525165 18.704508425508227 7.4597752137617634 -12.133187713294195 -3.5497605628437472 -5.9629398124558586 4.271821916103363 -2.4700044064294726
leaf_weight=21 27 28 22 29 36 28 22 21
leaf_count=21 27 28 22 29 36 28 22 21
internal_value=0 8.739 -1.63733 -2.91208 -0.822927 -2.36116 -1.08457 0.979302
internal_weight=0 55 179 157 128 107 79 43
internal_count=234 55 179 157 128 107 79 43
is_linear=0
shrinkage=0.05


Tree=47
num_leaves=9
num_cat=0
split_feature=4 13 4 13 6 4 6 4
split_gain=1.70393e+06 2.33883e+06 4.55805e+06 900024 970872 464723 260038 284112
threshold=3482.0000000000005 0.045737884986942097 1558.0000000000002 -0.039882433406188349 1986.214285714286 2012.0000000000002 1792.6428571428576 1972.5000000000002
decision_type=2 2 2 2 2 2 2 2
left_child=1 3 -3 4 -1 6 -5 -8
right_child=-2 2 -4 5 -6 -7 7 -9
leaf_value=-3.4342377626607496 14.34988512311663 -5.3270172119140629 23.503695479723124 0.29707060149221709 -17.358181467510406 4.368275361225523 -9.4135896428771648 -1.3696698143368675
leaf_weight=31 21 29 26 33 21 29 23 21
leaf_count=31 21 29 26 33 21 29 23 21
internal_value=0 -0.57823 8.30205 -3.66947 -9.05737 -1.02634 -3.05808 -5.57445
internal_weight=0 213 55 158 52 106 77 44
internal_count=234 213 55 158 52 106 77 44
is_linear=0
shrinkage=0.05


Tree=48
num_leaves=10
num_cat=0
split_feature=4 13 4 13 0 4 6 4 3
split_gain=1.5378e+06 2.11079e+06 4.11364e+06 820340 374250 766031 438799 226143 32844.1
threshold=3482.0000000000005 0.045737884986942097 1558.0000000000002 -0.07709885568308332 50.500000000000007 1377.0000000000002 2505.428571428572 2082.5000000000005 1972.5000000000002
decision_type=2 2 2 2 2 2 2 2 2
left_child=1 3 -3 -1 -5 -6 7 8 -7
right_child=-2 2 -4 4 5 6 -8 -9 -10
leaf_value=-12.688135596684049 13.632391207558769 -5.0606663128425335 22.328510622794813 3.8994186488064857 -11.608703646334735 -0.066116763716158655 -7.4035883079875608 4.5058635535240175 -2.7381982927737027
leaf_weight=21 21 29 26 22 22 23 22 25 23
leaf_count=21 21 29 26 22 22 23 22 25 23
internal_value=0 -0.549318 7.88694 -3.48599 -2.07544 -3.21846 -1.23367 0.678132 -1.40216
internal_weight=0 213 55 158 137 115 93 71 46
internal_count=234 213 55 158 137 115 93 71 46
is_linear=0
shrinkage=0.05


Tree=49
num_leaves=9
num_cat=0
split_feature=6 1 13 5 7 8 5 4
split_gain=1.41973e+06 815264 761366 594137 512839 409059 566477 245693
threshold=2766.0714285714289 1.0000000180025095e-35 0.029635548749010646 1972.5000000000002 871.95160701623456 1832.3571428571433 2548.5000000000005 1972.5000000000002
decision_type=2 2 2 2 2 2 2 2
left_child=1 2 4 -3 5 7 -7 -1
right_child=-2 3 -4 -5 -6 6 -8 -9
leaf_value=-6.6467122620344163 10.843156463305156 -1.152630228549242 8.0183995723724362 -11.223861519495648 -7.7683497224535261 9.3028971176147461 -1.6980141791430388 0.78840384626388549
leaf_weight=20 30 32 32 27 21 25 22 25
leaf_count=20 30 32 32 27 21 25 22 25
internal_value=0 -0.806289 1.20997 -5.7615 -0.718083 0.891217 4.15353 -2.51609
internal_weight=0 204 145 59 113 92 47 45
internal_count=234 204 145 59 113 92 47 45
is_linear=0
shrinkage=0.05


Tree=50
num_leaves=8
num_cat=0
split_feature=4 13 13 4 8 4 4
split_gain=1.35886e+06 3.78454e+06 827102 875551 374559 155560 126076
threshold=1014.0000000000001 0.074252531705905303 -0.07709885568308332 2762.0000000000005 2316.0000000000005 3097.5000000000005 1946.0000000000002
decision_type=2 2 2 2 2 2 2
left_child=-1 2 -2 4 6 -5 -4
right_child=1 -3 3 5 -6 -7 -8
leaf_value=-9.6459103197664842 -9.7068260369477457 20.835610130855017 -3.2187064212102161 2.9787309101649697 -7.1610602128319449 9.1402231758832926 1.2998233680662357
leaf_weight=37 27 21 26 21 32 20 38
leaf_count=37 27 21 26 21 32 20 38
internal_value=0 0.850672 -1.70837 -0.132038 -2.74424 5.98434 -0.535829
internal_weight=0 185 164 137 96 41 64
internal_count=222 185 164 137 96 41 64
is_linear=0
shrinkage=0.05


Tree=51
num_leaves=8
num_cat=0
split_feature=4 13 13 4 0 8 11
split_gain=1.25276e+06 3.19694e+06 831565 643614 429228 392466 105938
threshold=1558.0000000000002 0.037791284163752333 -0.07709885568308332 3097.5000000000005 161.50000000000003 2316.0000000000005 734.5828823609329
decision_type=2 2 2 2 2 2 2
left_child=4 2 -2 5 -1 6 -4
right_child=1 -3 3 -5 -6 -7 -8
leaf_value=-2.692335751056671 -9.221484772364299 19.168215306238697 -0.42719167470932007 8.6832119488716142 -11.081860723658917 -5.3808628957612177 3.9664969864098922
leaf_weight=30 27 22 34 20 31 35 23
leaf_count=30 27 22 34 20 31 35 23
internal_value=0 1.45813 -1.3449 0.553919 -6.95586 -1.21332 1.3457
internal_weight=0 161 139 112 61 92 57
internal_count=222 161 139 112 61 92 57
is_linear=0
shrinkage=0.05


Tree=52
num_leaves=9
num_cat=0
split_feature=13 9 6 10 6 0 5 8
split_gain=1.00713e+06 617455 521789 288192 347514 263538 112588 90899.6
threshold=0.074252531705905303 933.66453793356891 2585.428571428572 2565.0000000000005 2152.7857142857147 182.50000000000003 1820.5000000000002 1732.1785714285718
decision_type=2 2 2 2 2 2 2 2
left_child=1 3 -3 4 5 -1 -7 -8
right_child=-2 2 -4 -5 -6 6 7 -9
leaf_value=3.997115050829374 6.7193213166417314 -12.001593582446759 -1.4049064727056595 4.9185984492301946 -7.4037982100532167 -4.428482986379553 -2.4016279031833014 2.1624880170822145
leaf_weight=26 37 26 21 20 21 27 24 20
leaf_count=26 37 26 21 20 21 27 24 20
internal_value=0 -2.31722 -7.2669 -0.631458 -1.57215 -0.309622 -1.88674 -0.32703
internal_weight=0 185 47 138 118 97 71 44
internal_count=222 185 47 138 118 97 71 44
is_linear=0
shrinkage=0.05


Tree=53
num_leaves=9
num_cat=0
split_feature=13 7 13 8 3 0 7 6
split_gain=908934 584029 381871 195489 333157 200772 124797 142762
threshold=0.074252531705905303 917.23020362017667 -0.020592879721538834 2675.3214285714289 2743.5000000000005 113.50000000000001 720.38702500001352 1676.1428571428576
decision_type=2 2 2 2 2 2 2 2
left_child=1 3 -3 4 5 -1 7 -7
right_child=-2 2 -4 -5 -6 6 -8 -9
leaf_value=3.6735815277099615 6.3833550285900369 -11.843054162372242 -2.7231509006271764 3.7389512040398341 -7.2742133355140686 -2.8560988123600302 -4.8837737789377575 2.3835888784665329
leaf_weight=25 37 22 24 22 20 26 20 26
leaf_count=25 37 22 24 22 20 26 20 26
internal_value=0 -2.20136 -7.08484 -0.585241 -1.39834 -0.186816 -1.52723 -0.236255
internal_weight=0 185 46 139 117 97 72 52
internal_count=222 185 46 139 117 97 72 52
is_linear=0
shrinkage=0.05


Tree=54
num_leaves=8
num_cat=0
split_feature=4 13 11 4 9 4 13
split_gain=1.21524e+06 2.95596e+06 761609 630908 470885 352261 149007
threshold=1014.0000000000001 0.074252531705905303 1001.9743605472792 3205.5000000000005 933.66453793356891 2256.5000000000005 -0.012534094394425486
decision_type=2 2 2 2 2 2 2
left_child=-1 2 3 4 5 6 -2
right_child=1 -3 -4 -5 -6 -7 -8
leaf_value=-9.0040166262033825 -4.824154217676683 18.584578084945679 -8.2595952786505222 8.5185061860084534 -7.3303976138432816 5.3256698105070335 0.32213896058308777
leaf_weight=37 22 21 32 20 24 27 39
leaf_count=37 22 21 32 20 24 27 39
internal_value=0 0.92235 -1.33928 0.338376 -1.12236 0.57074 -1.5339
internal_weight=0 185 164 132 112 88 61
internal_count=222 185 164 132 112 88 61
is_linear=0
shrinkage=0.05


Tree=55
num_leaves=8
num_cat=0
split_feature=13 1 10 13 8 8 9
split_gain=1.64475e+06 577770 695696 426151 216127 241096 113237
threshold=0.12302575690668439 1.0000000180025095e-35 2499.3166666666671 1.0000000180025095e-35 1832.3571428571433 2330.0714285714289 671.62017839583871
decision_type=2 2 2 2 2 2 2
left_child=1 2 4 -3 6 -6 -1
right_child=-2 3 -4 -5 5 -7 -8
leaf_value=-1.3834669929291858 14.371029853820801 -7.8784638300920156 7.3120614426100961 0.95610954647972479 3.9342829639712971 -2.2519340140478952 -6.0315268659591679
leaf_weight=38 20 39 34 21 36 28 20
leaf_count=38 20 39 34 21 36 28 20
internal_value=0 -0.616639 0.987102 -4.78636 -0.775592 1.22781 -2.98625
internal_weight=0 216 156 60 122 64 58
internal_count=236 216 156 60 122 64 58
is_linear=0
shrinkage=0.05


Tree=56
num_leaves=9
num_cat=0
split_feature=4 9 0 0 4 1 5 6
split_gain=1.13271e+06 1.07355e+06 645909 456816 349791 222144 200726 25240
threshold=1558.0000000000002 1041.785927102391 161.50000000000003 86.500000000000014 2975.5000000000005 1.0000000180025095e-35 1972.5000000000002 1945.2857142857144
decision_type=2 2 2 2 2 2 2 2
left_child=2 3 -1 -2 5 6 -5 -8
right_child=1 -3 -4 4 -6 -7 7 -9
leaf_value=0.14008278566248275 -3.5974766943189835 13.139319706775925 -9.5361628131568441 6.7276228666305542 8.5313450228084218 -2.7401787239572277 2.1629555013775827 -0.31893254000516169
leaf_weight=34 36 22 35 23 22 23 20 21
leaf_count=34 36 22 35 23 22 23 20 21
internal_value=0 2.84741 -4.76816 1.28588 2.89874 1.4744 2.98901 0.891745
internal_weight=0 167 69 145 109 87 64 41
internal_count=236 167 69 145 109 87 64 41
is_linear=0
shrinkage=0.05


Tree=57
num_leaves=9
num_cat=0
split_feature=13 1 10 13 7 9 5 5
split_gain=1.48118e+06 481642 590253 395110 210664 510735 157898 121231
threshold=0.12302575690668439 1.0000000180025095e-35 2499.3166666666671 1.0000000180025095e-35 909.67113311893195 880.97537563729509 1619.5000000000002 2030.0000000000002
decision_type=2 2 2 2 2 2 2 2
left_child=1 2 4 -3 5 6 -1 -8
right_child=-2 3 -4 -5 -6 -7 7 -9
leaf_value=-5.4120049794514982 13.607373963594439 -7.3999805649694723 6.6746729941929095 1.1067454814910889 -4.8675290611982351 6.7876819278882898 2.2417724733352662 -2.5485678734523911
leaf_weight=21 20 39 34 21 25 23 25 28
leaf_count=21 20 39 34 21 25 23 25 28
internal_value=0 -0.615546 0.848716 -4.42263 -0.774912 0.279887 -1.74281 -0.288973
internal_weight=0 216 156 60 122 97 74 53
internal_count=236 216 156 60 122 97 74 53
is_linear=0
shrinkage=0.05


Tree=58
num_leaves=10
num_cat=0
split_feature=13 4 13 4 8 4 6 4 13
split_gain=1.33677e+06 1.06406e+06 918197 848326 403460 554982 150778 222692 48862.9
threshold=0.12302575690668439 3482.0000000000005 -0.0023340894221371973 2012.0000000000002 2316.0000000000005 1909.5000000000002 1846.5714285714287 1792.5000000000002 -0.058302977502093005
decision_type=2 2 2 2 2 2 2 2 2
left_child=1 2 4 6 5 -1 -4 -8 -7
right_child=-2 -3 3 -5 -6 8 7 -9 -10
leaf_value=-9.8777237010002139 12.927005610466004 9.5810309353082079 1.5472488005956015 10.439134134565082 -10.054449158330119 -1.4870693039894105 -6.2148900508880622 0.90667407172066827 1.9661703473045713
leaf_weight=20 20 23 36 21 31 20 23 21 21
leaf_count=20 20 23 36 21 31 20 23 21 21
internal_value=0 -0.584769 -1.79624 1.49525 -5.40972 -3.04928 -0.852517 -2.81596 0.281663
internal_weight=0 216 193 101 92 61 80 44 41
internal_count=236 216 193 101 92 61 80 44 41
is_linear=0
shrinkage=0.05


Tree=59
num_leaves=9
num_cat=0
split_feature=13 4 13 4 8 4 0 13
split_gain=1.20643e+06 960317 829159 747569 638494 271700 174979 73920.8
threshold=0.12302575690668439 3482.0000000000005 -0.031189992859142642 2159.5000000000005 2316.0000000000005 1014.0000000000001 92.500000000000014 0.037791284163752333
decision_type=2 2 2 2 2 2 2 2
left_child=1 2 4 5 -1 -4 -7 -8
right_child=-2 -3 3 -5 -6 6 7 -9
leaf_value=-2.8008973497085465 12.280655349493028 9.1019795174184051 -5.6587980747222906 7.7539244719914029 -13.614786930311295 -3.7995048432123095 0.1983350621743335 3.9895729541778566
leaf_weight=39 20 23 28 28 21 21 36 20
leaf_count=39 20 23 28 28 21 21 36 20
internal_value=0 -0.55553 -1.70643 0.494778 -6.58576 -1.44099 0.0927522 1.55235
internal_weight=0 216 193 133 60 105 77 56
internal_count=236 216 193 133 60 105 77 56
is_linear=0
shrinkage=0.05


Tree=60
num_leaves=10
num_cat=0
split_feature=4 13 4 13 6 4 4 13 6
split_gain=1.07631e+06 2.50747e+06 847388 610876 384549 509620 301004 249347 28857.6
threshold=1558.0000000000002 0.045737884986942097 3574.5000000000005 -0.07709885568308332 2352.9285714285725 2278.0000000000005 982.50000000000011 -0.0097525768667295881 1846.5714285714287
decision_type=2 2 2 2 2 2 2 2 2
left_child=6 2 3 -2 5 8 -1 -6 -5
right_child=1 -3 -4 4 7 -7 -8 -9 -10
leaf_value=-9.9776736974716194 -9.4862558889389046 18.61295378775824 9.1646586894989017 0.66879225617105309 -7.4992779153443525 9.1164425754547125 -2.6632939204191555 0.30153172552585605 -1.9554147556424142
leaf_weight=22 20 21 22 22 21 20 39 20 20
leaf_count=22 20 21 22 22 21 20 39 20 20
internal_value=0 2.46536 0.126739 -1.4898 0.0629105 2.54732 -5.30127 -3.694 -0.58083
internal_weight=0 166 145 123 103 62 61 41 42
internal_count=227 166 145 123 103 62 61 41 42
is_linear=0
shrinkage=0.05


Tree=61
num_leaves=8
num_cat=0
split_feature=3 13 7 9 11 0 6
split_gain=733970 763003 540092 331542 457462 253804 84829
threshold=1114.0000000000002 0.066602177232249385 917.23020362017667 880.97537563729509 982.85887725702025 149.50000000000003 1768.8571428571431
decision_type=2 2 2 2 2 2 2
left_child=-1 2 3 4 5 -2 -7
right_child=1 -3 -4 -5 -6 6 -8
leaf_value=-6.9262788931528734 5.6222979194351606 8.163449882779803 -5.6854978602944009 6.0873920981089285 -6.6677196282148365 1.5457325364862171 -2.5523853923963467
leaf_weight=30 28 35 33 30 20 28 23
leaf_count=30 28 35 33 30 20 28 23
internal_value=0 1.46887 0.0225057 1.48269 0.0873293 1.79747 -0.302438
internal_weight=0 197 162 129 99 79 51
internal_count=227 197 162 129 99 79 51
is_linear=0
shrinkage=0.05


Tree=62
num_leaves=10
num_cat=0
split_feature=4 13 4 13 6 4 7 13 6
split_gain=986372 2.18205e+06 753035 548205 345493 447548 315306 214042 23486.8
threshold=1558.0000000000002 0.045737884986942097 3574.5000000000005 -0.07709885568308332 2352.9285714285725 2223.0000000000005 802.58405520448059 -0.0097525768667295881 1784.3571428571429
decision_type=2 2 2 2 2 2 2 2 2
left_child=6 2 3 -2 5 8 -1 -6 -5
right_child=1 -3 -4 4 7 -7 -8 -9 -10
leaf_value=-8.4069467891346328 -8.9412774085998539 17.402758809498376 8.6776845953681256 0.52078455030918125 -6.9818199152038209 8.1878031253814694 -1.1931253927094596 0.24565307140350343 -1.9023747381567955
leaf_weight=33 20 21 22 20 21 22 28 20 20
leaf_count=33 20 21 22 20 21 22 28 20 20
internal_value=0 2.33937 0.157781 -1.3661 0.104803 2.45968 -5.09568 -3.45622 -0.690795
internal_weight=0 166 145 123 103 62 61 41 40
internal_count=227 166 145 123 103 62 61 41 40
is_linear=0
shrinkage=0.05


Tree=63
num_leaves=8
num_cat=0
split_feature=4 13 4 13 6 4 8
split_gain=897370 1.3067e+06 734498 452351 381537 256955 243192
threshold=982.50000000000011 0.074252531705905303 3574.5000000000005 1.0000000180025095e-35 2152.7857142857147 1925.0000000000002 1732.1785714285718
decision_type=2 2 2 2 2 2 2
left_child=-1 2 3 4 6 -5 -2
right_child=1 -3 -4 5 -6 -7 -8
leaf_value=-9.2720677787607375 -5.099394637097916 10.995573701858522 8.2438003019853081 -1.2088783838130812 -7.5362077867662585 5.7552649186207701 1.2976175944010417
leaf_weight=22 24 30 22 27 37 26 39
leaf_count=22 24 30 22 27 37 26 39
internal_value=0 1.35419 -0.298613 -1.52693 -3.50618 2.20749 -1.13934
internal_weight=0 205 175 153 100 53 63
internal_count=227 205 175 153 100 53 63
is_linear=0
shrinkage=0.05


Tree=64
num_leaves=9
num_cat=0
split_feature=4 13 4 13 7 4 8 9
split_gain=856904 1.85907e+06 611075 481393 269016 214261 291360 102880
threshold=1558.0000000000002 0.045737884986942097 3574.5000000000005 -0.07709885568308332 802.58405520448059 2223.0000000000005 2449.9285714285725 785.9601166539104
decision_type=2 2 2 2 2 2 2 2
left_child=4 2 3 -2 -1 7 -7 -5
right_child=1 -3 -4 5 -6 6 -8 -9
leaf_value=-7.8181499893015092 -8.3146393442153936 16.074284630730041 7.8316103545102216 -0.013527628869721385 -1.1548756019345352 7.0523355438595736 -1.0121406649549802 -4.2658085641860968
leaf_weight=33 20 21 22 33 28 21 24 25
leaf_count=33 20 21 22 33 28 21 24 25
internal_value=0 2.17035 0.156681 -1.21607 -4.7596 0.162292 2.75128 -1.84641
internal_weight=0 166 145 123 61 103 45 58
internal_count=227 166 145 123 61 103 45 58
is_linear=0
shrinkage=0.05


Tree=65
num_leaves=11
num_cat=0
split_feature=4 13 4 13 6 5 4 4 4 0
split_gain=1.10152e+06 2.2132e+06 522081 495406 552326 392190 262114 177517 45983 24073.3
threshold=1558.0000000000002 0.058143024463724109 3482.0000000000005 -0.045855806445474205 1905.0000000000002 1121.0000000000002 1014.0000000000001 2876.0000000000005 1972.5000000000002 173.50000000000003
decision_type=2 2 2 2 2 2 2 2 2 2
left_child=5 2 3 4 -2 -1 -7 8 -5 -10
right_child=1 -3 -4 7 -6 6 -8 -9 9 -11
leaf_value=0.19962506727738816 -0.20848667988410363 17.619234934307283 7.851479473114015 -1.708758930726485 -11.260595932006837 -12.194522434026004 -4.3679662289826764 5.5300721156597135 -0.23363319396972659 2.0737231552600863
leaf_weight=22 26 21 20 22 20 20 23 20 20 26
leaf_count=22 26 21 20 22 20 20 23 20 20 26
internal_value=0 2.39231 0.315908 -0.808804 -5.01375 -5.23018 -8.00822 1.38924 0.171345 1.07052
internal_weight=0 175 154 134 46 65 43 88 68 46
internal_count=240 175 154 134 46 65 43 88 68 46
is_linear=0
shrinkage=0.05


Tree=66
num_leaves=9
num_cat=0
split_feature=4 11 5 8 4 11 4 3
split_gain=994126 757613 353952 346974 236558 186671 150770 65758.2
threshold=1558.0000000000002 1005.2428645086478 1121.0000000000002 2660.0714285714289 1014.0000000000001 950.66699780258216 2256.5000000000005 1972.5000000000002
decision_type=2 2 2 2 2 2 2 2
left_child=2 3 -1 5 -4 6 7 -2
right_child=1 -3 4 -5 -6 -7 -8 -9
leaf_value=0.18964351740750401 1.4101363990988052 10.730009698867798 -11.584796190261841 6.1330481882448558 -4.1495680109314304 -3.2157142407553536 3.9818001365661626 -1.9077878202311696
leaf_weight=22 28 23 20 27 23 35 30 32
leaf_count=22 28 23 20 27 23 35 30 32
internal_value=0 2.27269 -4.96867 0.992967 -7.60781 -0.117291 1.08765 -0.359423
internal_weight=0 175 65 152 43 125 90 60
internal_count=240 175 65 152 43 125 90 60
is_linear=0
shrinkage=0.05


Tree=67
num_leaves=10
num_cat=0
split_feature=4 9 5 9 9 4 9 8 0
split_gain=897198 1.1645e+06 319441 255147 161641 213140 212731 134224 36304.8
threshold=1558.0000000000002 1041.785927102391 1121.0000000000002 783.52757391024682 933.66453793356891 2082.5000000000005 747.46923251107762 2368.4642857142862 203.50000000000003
decision_type=2 2 2 2 2 2 2 2 2
left_child=2 4 -1 -4 5 8 -7 -8 -2
right_child=1 -3 3 -5 -6 6 7 -9 -10
leaf_value=0.180161359093406 -2.1304338419878923 12.644318821119226 -3.6358694864355998 -11.357709684371949 -3.1025147171020508 -0.89981579780578613 8.3376364994049066 2.736966668004575 0.28091066519956331
leaf_weight=22 27 23 23 20 25 20 20 23 37
leaf_count=22 27 23 23 20 25 20 20 23 37
internal_value=0 2.15906 -4.72024 -7.22742 0.572472 1.29589 3.36042 5.34193 -0.736375
internal_weight=0 175 65 43 152 127 63 43 64
internal_count=240 175 65 43 152 127 63 43 64
is_linear=0
shrinkage=0.05


Tree=68
num_leaves=11
num_cat=0
split_feature=4 13 4 13 6 5 9 4 4 10
split_gain=809721 1.96486e+06 439578 443211 503002 288296 230270 145088 37791.2 14618.7
threshold=1558.0000000000002 0.058143024463724109 3482.0000000000005 -0.045855806445474205 1905.0000000000002 1121.0000000000002 783.52757391024682 2876.0000000000005 1972.5000000000002 1928.2833333333335
decision_type=2 2 2 2 2 2 2 2 2 2
left_child=5 2 3 4 -2 -1 -7 8 -5 -10
right_child=1 -3 -4 7 -6 6 -8 -9 9 -11
leaf_value=0.17115310755642979 -0.32894208293694716 16.398298924309866 7.009239301681518 -1.6638020428744231 -10.876015534400942 -3.4540759765583537 -10.789824031591415 4.8852249455451968 1.7867661254649816 0.002389901876449585
leaf_weight=22 26 21 20 22 20 23 20 20 22 24
leaf_count=22 26 21 20 22 20 23 20 20 22 24
internal_value=0 2.0511 0.0946691 -0.937356 -4.91463 -4.48423 -6.86605 1.14167 0.040626 0.855787
internal_weight=0 175 154 134 46 65 43 88 68 46
internal_count=240 175 154 134 46 65 43 88 68 46
is_linear=0
shrinkage=0.05


Tree=69
num_leaves=11
num_cat=0
split_feature=4 13 4 13 7 5 4 4 4 0
split_gain=730774 1.77328e+06 396719 399998 484162 260187 210536 130942 34106.6 19963.4
threshold=1558.0000000000002 0.058143024463724109 3482.0000000000005 -0.045855806445474205 656.82396950059501 1121.0000000000002 1014.0000000000001 2876.0000000000005 1972.5000000000002 173.50000000000003
decision_type=2 2 2 2 2 2 2 2 2 2
left_child=5 2 3 4 -2 -1 -7 8 -5 -10
right_child=1 -3 -4 7 -6 6 -8 -9 9 -11
leaf_value=0.16259551048278809 1.1797897696495057 15.578383949824744 6.658777437210083 -1.5806119187311694 -9.1678831769869884 -10.274619460105896 -3.260253430967746 4.6409637194871909 -0.37463041305541994 1.7265579933157333
leaf_weight=22 20 21 20 22 26 20 23 20 20 26
leaf_count=22 20 21 20 22 26 20 23 20 20 26
internal_value=0 1.94855 0.0899357 -0.890488 -4.66889 -4.26002 -6.52275 1.08459 0.0385947 0.812998
internal_weight=0 175 154 134 46 65 43 88 68 46
internal_count=240 175 154 134 46 65 43 88 68 46
is_linear=0
shrinkage=0.05


Tree=70
num_leaves=10
num_cat=0
split_feature=4 9 9 0 9 11 4 3 4
split_gain=209944 675214 437954 418453 174604 150297 177416 111863 90532.9
threshold=1792.5000000000002 1041.785927102391 933.66453793356891 37.500000000000007 783.52757391024682 969.02040136377468 2159.5000000000005 1946.0000000000002 1223.5000000000002
decision_type=2 2 2 2 2 2 2 2 2
left_child=3 2 5 -1 8 6 7 -2 -5
right_child=1 -3 -4 4 -6 -7 -8 -9 -10
leaf_value=3.9100489570980983 2.2841363767385485 9.4510241174697889 -6.8473368102853955 -4.6303555073945422 -8.0975666809082032 -2.3807595200008818 4.566433884037866 -2.4948434598743918 -0.089623327482314344
leaf_weight=21 25 20 22 23 20 27 36 24 21
leaf_count=21 25 20 22 23 20 27 36 24 21
internal_value=0 0.881282 -0.397785 -2.21436 -4.22393 0.869092 1.9014 -0.0565884 -2.46319
internal_weight=0 154 134 85 64 112 85 49 44
internal_count=239 154 134 85 64 112 85 49 44
is_linear=0
shrinkage=0.05


Tree=71
num_leaves=8
num_cat=0
split_feature=5 4 6 8 9 4 10
split_gain=197132 326747 260662 400901 110667 196313 58092.1
threshold=962.00000000000011 1114.0000000000002 2692.1428571428573 2478.1428571428573 824.02054265007416 2102.0000000000005 1749.7000000000003
decision_type=2 2 2 2 2 2 2
left_child=-1 -2 3 4 5 6 -3
right_child=1 2 -4 -5 -6 -7 -8
leaf_value=3.7332625593457909 -5.221133658815833 1.8472908876560354 3.9954054389681133 -5.9552999432881677 -1.9876346292034275 5.8241052889823912 -1.2592154525658665
leaf_weight=28 34 27 35 30 31 20 34
leaf_count=28 34 27 35 30 31 20 34
internal_value=0 -0.731798 0.13056 -0.822043 0.552937 1.52525 0.115796
internal_weight=0 211 177 142 112 81 61
internal_count=239 211 177 142 112 81 61
is_linear=0
shrinkage=0.05


Tree=72
num_leaves=9
num_cat=0
split_feature=4 8 0 5 4 8 9 3
split_gain=182888 279721 263281 199131 223929 172103 156160 19206
threshold=2975.5000000000005 2487.9642857142862 116.50000000000001 962.00000000000011 1114.0000000000002 2158.5714285714294 764.8055703843504 1757.0000000000002
decision_type=2 2 2 2 2 2 2 2
left_child=1 3 -2 -1 -5 6 7 -6
right_child=2 -3 -4 4 5 -7 -8 -9
leaf_value=3.8446093559265138 -1.2368797426873988 -5.4872194886207586 6.4139905141747526 -4.5176287993788717 1.3279617634686558 -2.8203285213559868 5.3429090946912767 -0.57926039695739751
leaf_weight=27 22 28 23 32 22 32 20 33
leaf_count=27 22 28 23 32 22 32 20 33
internal_value=0 -0.864405 2.67357 -0.0846532 -0.847891 0.2496 1.55944 0.183628
internal_weight=0 194 45 166 139 107 75 55
internal_count=239 194 45 166 139 107 75 55
is_linear=0
shrinkage=0.05


Tree=73
num_leaves=10
num_cat=0
split_feature=13 7 7 11 9 7 7 10 11
split_gain=494861 667905 481108 437017 177759 232990 170053 118428 25926.4
threshold=-1.0000000180025095e-35 885.13401746892475 810.55541727666684 1001.9743605472792 747.46923251107762 708.35168207610934 519.88429738501986 2038.5500000000002 729.39824832684292
decision_type=2 2 2 2 2 2 2 2 2
left_child=1 4 6 -4 8 -6 -2 -8 -1
right_child=2 -3 3 -5 5 -7 7 -9 -10
leaf_value=-4.0454713458106637 2.7356478600274947 -9.4513173001783866 1.3468466360912179 9.9242560342506128 5.2515447466269789 -1.9457501541484488 -5.4554915780112863 -0.31401567825426663 -1.5300623607635497
leaf_weight=21 21 27 33 27 23 22 21 24 20
leaf_count=21 21 27 33 27 23 22 21 24 20
internal_value=0 -2.59082 1.96625 5.20668 -0.436943 1.73287 -0.979592 -2.71337 -2.81844
internal_weight=0 113 126 60 86 45 66 45 41
internal_count=239 113 126 60 86 45 66 45 41
is_linear=0
shrinkage=0.05


Tree=74
num_leaves=10
num_cat=0
split_feature=13 4 13 3 13 11 4 4 5
split_gain=464993 410852 434212 235500 278688 439444 177961 158952 53735.2
threshold=-0.085936898755354416 2278.0000000000005 -0.012534094394425486 2993.5000000000005 -1.0000000180025095e-35 1001.9743605472792 1075.5000000000002 1972.5000000000002 1972.5000000000002
decision_type=2 2 2 2 2 2 2 2 2
left_child=-1 3 -3 4 7 6 -6 -2 -8
right_child=1 2 -4 -5 5 -7 8 -9 -10
leaf_value=-6.9375336025072194 -6.4487491062709275 1.0262561541337234 10.087750332355499 -5.5930663510479715 -4.337916281223297 7.8927954741886683 3.0177626506141997 -0.36717864871025085 -0.24391831031867436
leaf_weight=23 21 39 20 22 20 21 23 22 28
leaf_count=23 21 39 20 22 20 21 23 22 28
internal_value=0 0.540736 4.09795 -0.79605 -0.0143145 1.5388 -0.340556 -3.33725 1.22704
internal_weight=0 216 59 157 135 92 71 43 51
internal_count=239 216 59 157 135 92 71 43 51
is_linear=0
shrinkage=0.05


Tree=75
num_leaves=9
num_cat=0
split_feature=4 9 6 6 0 9 4 10
split_gain=473072 557817 384117 524045 260751 160010 341434 42432.4
threshold=1558.0000000000002 1041.785927102391 1726.4285714285718 1957.4285714285718 77.500000000000014 860.14646258529672 2159.5000000000005 1749.7000000000003
decision_type=2 2 2 2 2 2 2 2
left_child=2 4 -1 -4 -2 6 7 -6
right_child=1 -3 3 -5 5 -7 -8 -9
leaf_value=-9.0598499677397992 -4.5974109490712491 8.548549208433732 4.8198910463423958 -5.799680575957666 1.6798882675170899 -1.7558329373159829 6.5715821003913879 -1.2559390481561423
leaf_weight=22 24 23 21 26 20 34 30 32
leaf_count=22 24 23 21 26 20 34 30 32
internal_value=0 1.33212 -3.60711 -1.05477 0.146564 1.12808 2.32384 -0.126775
internal_weight=0 163 69 47 140 116 82 52
internal_count=232 163 69 47 140 116 82 52
is_linear=0
shrinkage=0.05


Tree=76
num_leaves=9
num_cat=0
split_feature=13 4 7 4 7 4 9 13
split_gain=501780 1.33136e+06 638187 320442 214056 170237 117540 63193.6
threshold=-0.0023340894221371973 2159.5000000000005 885.13401746892475 892.50000000000011 868.62534416395238 2975.5000000000005 684.57330593175686 -0.039882433406188349
decision_type=2 2 2 2 2 2 2 2
left_child=2 3 5 -2 6 7 -5 -1
right_child=1 -3 -4 4 -6 -7 -8 -9
leaf_value=-4.2018785466750463 -5.9124776386079336 13.112938327680935 -9.7319583683013917 1.3489053999835796 4.5752720200057544 2.4124585533142091 -3.0142642724102942 -0.3963730198144913
leaf_weight=24 21 22 25 33 28 30 29 20
leaf_count=24 21 22 25 33 28 30 29 20
internal_value=0 1.87617 -2.82523 -0.350939 0.946754 -0.491876 -0.691932 -2.4721
internal_weight=0 133 99 111 90 74 62 44
internal_count=232 133 99 111 90 74 62 44
is_linear=0
shrinkage=0.05


Tree=77
num_leaves=9
num_cat=0
split_feature=4 7 9 0 3 4 11 3
split_gain=418618 490071 209474 178842 114929 315844 38509.2 46961.6
threshold=1075.5000000000002 790.94526637068168 1041.785927102391 77.500000000000014 2743.5000000000005 2762.0000000000005 691.89727458389291 1346.5000000000002
decision_type=2 2 2 2 2 2 2 2
left_child=1 -1 3 -2 5 6 -5 -8
right_child=2 -3 -4 4 -6 -7 7 -9
leaf_value=-10.042425596146357 -3.6029228723966158 0.89377827644348151 5.0318306409395666 1.7508749300783333 -2.0130784554062067 7.3158241844177248 1.5878585028648378 -1.3921684576914861
leaf_weight=21 26 20 26 33 27 20 20 39
leaf_count=21 26 20 26 33 27 20 20 39
internal_value=0 -4.70769 0.860505 0.203205 0.915143 1.62105 0.383059 -0.38199
internal_weight=0 41 191 165 139 112 92 59
internal_count=232 41 191 165 139 112 92 59
is_linear=0
shrinkage=0.05


Tree=78
num_leaves=10
num_cat=0
split_feature=13 4 7 7 4 0 10 9 13
split_gain=465065 1.17374e+06 583202 285678 334962 330493 160942 69371.8 58987
threshold=-0.0023340894221371973 2159.5000000000005 885.13401746892475 794.5294790264719 1114.0000000000002 113.50000000000001 2366.2166666666672 671.62017839583871 -0.062334073624167922
decision_type=2 2 2 2 2 2 2 2 2
left_child=2 3 6 4 -2 -5 8 -6 -1
right_child=1 -3 -4 5 7 -7 -8 -9 -10
leaf_value=-0.23629220879596213 -7.7949083918333066 12.364735989137131 -9.314566913604736 6.4552618191792419 1.9019361164258877 -2.0940013405680657 2.8841331382592519 -2.0253489835695788 -3.6820720590926985
leaf_weight=23 20 22 25 26 23 20 24 22 27
leaf_count=23 20 22 25 26 23 20 24 22 27
internal_value=0 1.81406 -2.71208 -0.277068 -2.41094 2.73819 -0.481506 -0.0180699 -2.09701
internal_weight=0 133 99 111 65 46 74 45 50
internal_count=232 133 99 111 65 46 74 45 50
is_linear=0
shrinkage=0.05


Tree=79
num_leaves=9
num_cat=0
split_feature=13 4 13 3 5 9 3 4
split_gain=434857 851176 455308 247662 423807 169951 107922 122489
threshold=-0.045855806445474205 2159.5000000000005 1.0000000180025095e-35 1114.0000000000002 1236.0000000000002 824.02054265007416 1946.0000000000002 1558.0000000000002
decision_type=2 2 2 2 2 2 2 2
left_child=5 3 -3 -2 -5 -1 -6 -8
right_child=1 2 -4 4 6 -7 7 -9
leaf_value=-1.3848278808593752 -5.7963763850075862 2.2770762148357573 12.818273458480835 5.7211203740193293 0.89006135602792102 -6.9078801375169023 -5.8538663228352874 -1.07283536372958
leaf_weight=30 21 21 20 26 30 26 21 37
leaf_count=30 21 21 20 26 30 26 21 37
internal_value=0 1.10957 7.41912 -0.80666 0.112499 -3.9491 -1.54459 -2.8039
internal_weight=0 176 41 135 114 56 88 58
internal_count=232 176 41 135 114 56 88 58
is_linear=0
shrinkage=0.05


Tree=80
num_leaves=9
num_cat=0
split_feature=8 4 5 0 7 10 5 10
split_gain=408362 372414 302197 303959 173077 184858 135192 81309
threshold=1810.2500000000005 1075.5000000000002 1075.5000000000002 56.500000000000007 670.36597754195179 2484.6000000000008 2627.5000000000005 1802.5166666666667
decision_type=2 2 2 2 2 2 2 2
left_child=1 -1 -2 -4 -5 -6 -7 -3
right_child=2 7 3 4 5 6 -8 -9
leaf_value=-8.3086233746437799 6.3315780146916714 1.1482835238799454 -4.9058014678955075 5.1090991497039795 -2.124995222772871 0.26877016258239744 5.7840397495031359 -2.7491784349083903
leaf_weight=21 30 32 20 29 35 25 20 23
leaf_count=21 30 32 20 29 35 25 20 23
internal_value=0 -2.6443 1.81145 0.760256 1.7999 0.600315 2.72 -0.481564
internal_weight=0 76 159 129 109 80 45 55
internal_count=235 76 159 129 109 80 45 55
is_linear=0
shrinkage=0.05


Tree=81
num_leaves=9
num_cat=0
split_feature=13 7 13 7 8 6 7 13
split_gain=574872 617733 448159 386709 259780 197575 189792 70427
threshold=-0.001043268119326368 810.55541727666684 0.084968708774234139 885.13401746892475 1767.3214285714287 1720.7142857142858 670.36597754195179 0.037791284163752333
decision_type=2 2 2 2 2 2 2 2
left_child=3 5 -3 4 -1 -2 -6 -7
right_child=1 2 -4 -5 6 7 -8 -9
leaf_value=-4.5276644097375023 -4.2769118299086895 2.9190504125422905 11.854095573140228 -7.4525799751281738 4.7367026905218763 -0.6365441966056824 -1.1069442074407232 3.5594966793060303
leaf_weight=28 24 36 23 27 24 20 33 20
leaf_count=28 24 36 23 27 24 20 33 20
internal_value=0 2.71173 6.4022 -2.23967 -0.583799 -0.690419 1.35354 1.46148
internal_weight=0 123 59 112 85 64 57 40
internal_count=235 123 59 112 85 64 57 40
is_linear=0
shrinkage=0.05


Tree=82
num_leaves=10
num_cat=0
split_feature=13 7 13 7 4 7 6 7 13
split_gain=518822 557504 404463 349005 220216 188113 178311 74104.5 63560.4
threshold=-0.001043268119326368 810.55541727666684 0.084968708774234139 885.13401746892475 2330.5000000000005 670.36597754195179 1720.7142857142858 670.36597754195179 0.037791284163752333
decision_type=2 2 2 2 2 2 2 2 2
left_child=3 6 -3 4 7 -6 -2 -1 -8
right_child=1 2 -4 -5 5 -7 8 -9 -10
leaf_value=-5.3692444908618926 -4.0630663704127077 2.7730979485644234 11.261390907868096 -7.0799508960158732 4.8865231017271675 -1.6792450124025344 -0.60471696376800543 -1.1165965276105065 3.3815218162536627
leaf_weight=20 24 36 23 27 24 20 20 21 20
leaf_count=20 24 36 23 27 24 20 20 21 20
internal_value=0 2.57615 6.08209 -2.12768 -0.554609 1.90208 -0.655898 -3.19106 1.3884
internal_weight=0 123 59 112 85 44 64 41 40
internal_count=235 123 59 112 85 44 64 41 40
is_linear=0
shrinkage=0.05


Tree=83
num_leaves=9
num_cat=0
split_feature=13 7 13 7 8 6 7 13
split_gain=468237 503147 365028 314977 221163 160926 157336 57363.3
threshold=-0.001043268119326368 810.55541727666684 0.084968708774234139 885.13401746892475 1767.3214285714287 1720.7142857142858 670.36597754195179 0.037791284163752333
decision_type=2 2 2 2 2 2 2 2
left_child=3 5 -3 4 -1 -2 -6 -7
right_child=1 2 -4 -5 6 7 -8 -9
leaf_value=-4.1658218315669471 -3.8599129393696785 2.6344430923461917 10.698321101976479 -6.7259534482602721 4.3410061001777649 -0.57448113977909088 -0.97956971164905671 3.2124456954002385
leaf_weight=28 24 36 23 27 24 20 33 20
leaf_count=28 24 36 23 27 24 20 33 20
internal_value=0 2.44734 5.77799 -2.0213 -0.526878 -0.623103 1.26067 1.31898
internal_weight=0 123 59 112 85 64 57 40
internal_count=235 123 59 112 85 64 57 40
is_linear=0
shrinkage=0.05


Tree=84
num_leaves=9
num_cat=0
split_feature=13 3 5 10 7 8 7 8
split_gain=422584 534904 555417 545896 284266 199600 141996 97605.8
threshold=-0.001043268119326368 1114.0000000000002 1236.0000000000002 2519.9166666666674 885.13401746892475 1767.3214285714287 670.36597754195179 2010.1785714285718
decision_type=2 2 2 2 2 2 2 2
left_child=4 -2 -3 7 5 -1 -7 -4
right_child=1 2 3 -5 -6 6 -8 -9
leaf_value=-3.9575306994574415 -4.5503251783225851 10.537316988781095 0.84919394999742515 8.6701650142669688 -6.3896556907229956 4.1239557822545372 -0.93059137788685886 -3.4863145706199461
leaf_weight=28 23 24 34 21 27 24 33 21
leaf_count=28 23 24 34 21 27 24 33 21
internal_value=0 2.32497 3.90629 1.81228 -1.92023 -0.500535 1.19764 -0.806182
internal_weight=0 123 100 76 112 85 57 55
internal_count=235 123 100 76 112 85 57 55
is_linear=0
shrinkage=0.05


Tree=85
num_leaves=9
num_cat=0
split_feature=9 9 13 4 8 13 7 7
split_gain=428095 453514 195625 209072 95984.8 91766.4 64257.9 56005.7
threshold=1041.785927102391 979.10117468572855 -0.070303947789393015 2159.5000000000005 2433.0714285714289 -0.001043268119326368 519.88429738501986 794.5294790264719
decision_type=2 2 2 2 2 2 2 2
left_child=1 2 -1 5 -5 -4 -7 -8
right_child=-2 -3 3 4 -6 6 7 -9
leaf_value=-4.0775691447050679 6.0035870994840357 -7.7406349015235909 -2.863379361011364 6.305904178619385 1.6586931762695312 2.8080916350538079 -1.8999766149397557 1.2958408100530505
leaf_weight=23 28 20 27 20 25 22 29 26
leaf_count=23 28 20 27 20 25 22 29 26
internal_value=0 -0.614334 0.214306 0.87681 3.72412 -0.355199 0.524293 -0.389227
internal_weight=0 192 172 149 45 104 77 55
internal_count=220 192 172 149 45 104 77 55
is_linear=0
shrinkage=0.05


Tree=86
num_leaves=9
num_cat=0
split_feature=9 9 3 7 3 13 5 9
split_gain=386355 409297 177755 392246 113368 70642.9 56338.2 55438.6
threshold=1041.785927102391 979.10117468572855 2683.5000000000005 827.03719301941703 2120.0000000000005 0.017985960002937066 1635.0000000000002 684.57330593175686
decision_type=2 2 2 2 2 2 2 2
left_child=1 2 4 -4 5 6 -1 -8
right_child=-2 -3 3 -5 -6 -7 7 -9
leaf_value=-2.3730359017848968 5.7034077627318247 -7.3536033916473391 -7.6676512479782106 2.2349513262510299 4.4572641842422032 2.4329705206677321 -1.3421246435331262 1.8761162905022504
leaf_weight=24 28 20 20 20 21 32 23 32
leaf_count=24 28 20 20 20 21 32 23 32
internal_value=0 -0.583617 0.203591 -2.71635 1.08842 0.451073 -0.351722 0.530306
internal_weight=0 192 172 40 132 111 79 55
internal_count=220 192 172 40 132 111 79 55
is_linear=0
shrinkage=0.05


Tree=87
num_leaves=9
num_cat=0
split_feature=4 13 8 4 13 5 6 0
split_gain=380624 354104 354045 219455 311178 118347 93696.1 22383.3
threshold=3482.0000000000005 -0.031189992859142642 2330.0714285714289 1332.0000000000002 0.053377728464598102 1236.0000000000002 2547.0714285714289 219.50000000000003
decision_type=2 2 2 2 2 2 2 2
left_child=1 2 -1 5 6 -3 7 -5
right_child=-2 3 -4 4 -6 -7 -8 -9
leaf_value=-0.51339957907393174 6.4449124509638018 0.95076348781585696 -8.215769073486328 3.0848571465715118 7.6907321542501457 -4.2094823558330541 -2.0431776886894588 0.94354871883988389
leaf_weight=37 22 20 25 23 21 25 21 26
leaf_count=37 22 20 25 23 21 25 21 26
internal_value=0 -0.487521 -3.61919 0.940153 2.35256 -1.91604 0.751104 1.94865
internal_weight=0 198 62 136 91 45 70 49
internal_count=220 198 62 136 91 45 70 49
is_linear=0
shrinkage=0.05


Tree=88
num_leaves=8
num_cat=0
split_feature=4 13 8 7 11 11 3
split_gain=343514 319579 319526 244247 291570 290251 70511.9
threshold=3482.0000000000005 -0.031189992859142642 2330.0714285714289 802.58405520448059 981.77705190341919 989.28437961601514 1902.0000000000002
decision_type=2 2 2 2 2 2 2
left_child=1 2 -1 4 6 -5 -3
right_child=-2 3 -4 5 -6 -7 -8
leaf_value=-0.48772961513416191 6.122667065533725 2.6999711716616597 -7.8049806709289555 0.72604801808603303 -6.1717594599723817 8.0171010971069343 -0.85073203506140871
leaf_weight=37 22 27 25 39 20 21 29
leaf_count=37 22 27 25 39 20 21 29
internal_value=0 -0.463145 -3.43823 0.893146 -0.989568 3.27792 0.861214
internal_weight=0 198 62 136 76 60 56
internal_count=220 198 62 136 76 60 56
is_linear=0
shrinkage=0.05


Tree=89
num_leaves=9
num_cat=0
split_feature=0 4 13 6 13 4 13 4
split_gain=317359 382674 480400 244107 313261 191058 129226 216067
threshold=28.500000000000004 3482.0000000000005 0.084968708774234139 2171.7142857142867 -0.007090476129840261 2223.0000000000005 0.021284796284103406 1883.5000000000002
decision_type=2 2 2 2 2 2 2 2
left_child=-1 2 3 5 -5 6 7 -2
right_child=1 -3 -4 4 -6 -7 -8 -9
leaf_value=-5.5114533424377443 -6.0670865944027907 7.2002681743531003 6.9756962558085265 -7.5690400306995107 -0.12697692763420843 4.5800865380660349 2.5922621223059572 0.51904488765832146
leaf_weight=22 20 21 22 26 31 23 22 33
leaf_count=22 20 21 22 26 31 23 22 33
internal_value=0 0.818677 0.0615395 -0.919825 -3.5216 0.593454 -0.629113 -1.96629
internal_weight=0 198 177 155 57 98 75 53
internal_count=220 198 177 155 57 98 75 53
is_linear=0
shrinkage=0.05


Tree=90
num_leaves=10
num_cat=0
split_feature=3 13 4 4 7 11 10 4 9
split_gain=325292 479911 372296 329958 328557 305779 204744 102010 77771.7
threshold=1114.0000000000002 -1.0000000180025095e-35 3574.5000000000005 1972.5000000000002 818.08883924658221 989.28437961601514 2408.733333333334 2223.0000000000005 705.47920795174332
decision_type=2 2 2 2 2 2 2 2 2
left_child=3 2 6 -1 8 -6 7 -2 -3
right_child=1 4 -4 -5 5 -7 -8 -9 -10
leaf_value=-9.0365057897567755 -3.9165501356124879 1.9535704014392998 3.9724588297307495 0.045871903300285344 2.017910087881265 9.7745090201497078 -7.8944960741769705 0.44893770010575001 -1.9137410420637864
leaf_weight=20 32 26 20 20 27 24 21 23 26
leaf_count=20 32 26 20 20 27 24 21 23 26
internal_value=0 0.446071 -2.09728 -4.49532 2.81658 5.66807 -3.69458 -2.09098 0.0199147
internal_weight=0 199 96 40 103 51 76 55 52
internal_count=239 199 96 40 103 51 76 55 52
is_linear=0
shrinkage=0.05


Tree=91
num_leaves=10
num_cat=0
split_feature=4 13 13 13 4 3 9 3 11
split_gain=315338 723039 323832 270641 168299 228821 149419 139670 35779.9
threshold=1558.0000000000002 0.058143024463724109 -0.085936898755354416 0.099536960609184391 3009.5000000000005 1628.0000000000002 835.5250435105429 1919.0000000000002 734.5828823609329
decision_type=2 2 2 2 2 2 2 2 2
left_child=3 2 -2 7 5 -4 8 -1 -7
right_child=1 -3 4 -5 -6 6 -8 -9 -10
leaf_value=-4.0478263150090754 -5.6956311782201139 9.750048205852508 3.2852176234126094 -7.9051122690950129 4.6165908694267275 -1.3658710199853648 -4.8224103673146326 1.2106934270688468 1.5257743287086489
leaf_weight=23 24 20 32 21 22 23 26 28 20
leaf_count=23 24 20 32 21 22 23 26 28 20
internal_value=0 0.830632 -0.382894 -3.12789 0.653738 -0.209458 -1.83018 -1.1608 -0.0209197
internal_weight=0 167 147 72 123 101 69 51 43
internal_count=239 167 147 72 123 101 69 51 43
is_linear=0
shrinkage=0.05


Tree=92
num_leaves=11
num_cat=0
split_feature=3 13 5 8 7 13 0 9 11 13
split_gain=288464 422127 293092 308651 236409 214181 185249 175948 128602 31368.3
threshold=1114.0000000000002 -1.0000000180025095e-35 1075.5000000000002 2535.0714285714289 708.35168207610934 -0.047988820754693844 191.50000000000003 705.47920795174332 958.01586307139235 0.031626239500656135
decision_type=2 2 2 2 2 2 2 2 2 2
left_child=6 4 -3 8 7 -6 -1 -2 9 -4
right_child=1 2 3 -5 5 -7 -8 -9 -10 -11
leaf_value=-7.6209351040422924 -2.7374687444596066 8.0916791725158692 -0.28730029881000524 6.5879736585276465 -7.7363357683022818 -1.1861572728707241 -0.81562283009290693 3.4706733112335209 -3.7255303561687469 2.4486874493685638
leaf_weight=20 21 20 20 21 24 26 20 25 20 22
leaf_count=20 21 20 20 21 24 26 20 25 20 22
internal_value=0 0.434992 2.65821 1.34894 -1.95033 -4.33024 -4.21828 0.636522 -0.425572 1.14584
internal_weight=0 199 103 83 96 50 40 46 62 42
internal_count=239 199 103 83 96 50 40 46 62 42
is_linear=0
shrinkage=0.05


Tree=93
num_leaves=9
num_cat=0
split_feature=4 9 3 6 0 5 4 3
split_gain=294317 349771 229586 286760 153265 98364.4 156711 39351.6
threshold=1558.0000000000002 1041.785927102391 1368.5000000000002 1846.5714285714287 77.500000000000014 2435.0000000000005 2256.5000000000005 1757.0000000000002
decision_type=2 2 2 2 2 2 2 2
left_child=2 4 -1 -4 -2 6 7 -6
right_child=1 -3 3 -5 5 -7 -8 -9
leaf_value=-7.3988075721831557 -3.2429818884018928 6.2790162301063539 3.4807187804579733 -4.1985267077722863 1.7880172608154163 -1.5548788337996513 4.8710609720303459 -1.0152379428186726
leaf_weight=21 31 25 20 31 21 33 26 31
leaf_count=21 31 25 20 31 21 33 26 31
internal_value=0 0.825482 -2.99882 -1.18706 -0.134647 0.733447 1.70158 0.116846
internal_weight=0 167 72 51 142 111 78 52
internal_count=239 167 72 51 142 111 78 52
is_linear=0
shrinkage=0.05


Tree=94
num_leaves=10
num_cat=0
split_feature=13 9 9 7 3 5 3 5 9
split_gain=266191 248199 226799 131915 121363 118935 73999.4 72579.5 17927.4
threshold=-0.085936898755354416 1069.6966916648094 966.72568124642214 812.78472153025598 1919.0000000000002 1075.5000000000002 1902.0000000000002 2030.0000000000002 636.16175117030014
decision_type=2 2 2 2 2 2 2 2 2
left_child=-1 2 3 5 -5 -2 8 -8 -7
right_child=1 -3 -4 4 -6 6 7 -9 -10
leaf_value=-5.304651395479838 -4.0212366884404966 5.4107060835475016 -5.2185518957319719 -0.8857964308488937 3.8288227325830704 0.62689101845026018 0.39083752671877547 -3.4417477494194397 2.7439296311885122
leaf_weight=24 22 21 21 21 39 20 30 21 20
leaf_count=24 22 21 21 21 39 20 30 21 20
internal_value=0 0.247234 -0.311699 0.283931 2.17871 -0.722145 0.0754378 -1.18729 1.68541
internal_weight=0 215 194 173 60 113 91 51 40
internal_count=239 215 194 173 60 113 91 51 40
is_linear=0
shrinkage=0.05


Tree=95
num_leaves=9
num_cat=0
split_feature=4 8 8 4 0 7 8 10
split_gain=328822 207753 270172 502422 158476 189978 47084.4 38125.6
threshold=3205.5000000000005 2487.9642857142862 1832.3571428571433 1075.5000000000002 104.50000000000001 818.08883924658221 2641.2857142857147 1765.7000000000005
decision_type=2 2 2 2 2 2 2 2
left_child=1 2 3 -1 5 -4 -3 -5
right_child=-2 6 4 7 -6 -7 -8 -9
leaf_value=-8.4912266362281077 5.79824335791848 -5.4669441831111918 0.73458757457279023 2.1085537105798724 -0.31528290580300727 7.2465660015741991 -2.1821027785539626 -0.56512207587560015
leaf_weight=21 22 20 21 24 34 24 24 30
leaf_count=21 22 20 21 24 34 24 24 30
internal_value=0 -0.645198 0.220521 -1.92886 2.26107 4.20764 -3.67521 0.623178
internal_weight=0 198 154 75 79 45 44 54
internal_count=220 198 154 75 79 45 44 54
is_linear=0
shrinkage=0.05


Tree=96
num_leaves=9
num_cat=0
split_feature=4 4 13 6 7 3 3 3
split_gain=296762 194867 396635 279235 232679 174547 25485.3 18116.7
threshold=3205.5000000000005 982.50000000000011 0.021284796284103406 2465.6428571428578 868.62534416395238 1803.5000000000002 2001.0000000000002 1158.5000000000002
decision_type=2 2 2 2 2 2 2 2
left_child=1 -1 3 5 -4 7 -7 -3
right_child=-2 2 4 -5 -6 6 -8 -9
leaf_value=-4.7392235317230229 5.5083311457525603 0.9538523173332214 0.47307149287193051 -6.2590405720930837 6.8869231682557333 -3.3780513995460106 -1.0738293212439334 3.0565485602333435
leaf_weight=25 22 20 31 26 26 28 21 21
leaf_count=25 22 20 31 26 26 28 21 21
internal_value=0 -0.612938 -0.0166539 -1.69488 3.39869 -0.376348 -2.39053 2.03084
internal_weight=0 198 173 116 57 90 49 41
internal_count=220 198 173 116 57 90 49 41
is_linear=0
shrinkage=0.05


Tree=97
num_leaves=8
num_cat=0
split_feature=4 9 9 13 3 9 3
split_gain=267828 188831 126932 122532 225844 85080.4 84402.4
threshold=3205.5000000000005 979.10117468572855 880.97537563729509 0.021284796284103406 1803.5000000000002 780.47979928338839 1871.0000000000002
decision_type=2 2 2 2 2 2 2
left_child=1 2 3 4 -1 -6 -5
right_child=-2 -3 -4 6 5 -7 -8
leaf_value=1.759733154438436 5.2329145810820847 -3.9145081778935022 3.0123942575147078 -0.72685781836509711 -1.8416434423490005 -5.7541917855540916 3.7143677670022721
leaf_weight=32 22 35 31 20 33 24 23
leaf_count=32 22 35 31 20 33 24 23
internal_value=0 -0.582291 0.133216 -0.542955 -1.60184 -3.48903 1.64868
internal_weight=0 198 163 132 89 57 43
internal_count=220 198 163 132 89 57 43
is_linear=0
shrinkage=0.05


Tree=98
num_leaves=10
num_cat=0
split_feature=4 13 9 10 4 13 3 9 3
split_gain=258447 272119 246809 237167 197344 135425 78944.8 90723.3 31911.3
threshold=1358.0000000000002 0.087068344870534956 997.97787643981781 2130.0333333333338 2256.5000000000005 0.021284796284103406 1946.0000000000002 841.63853116519374 1757.0000000000002
decision_type=2 2 2 2 2 2 2 2 2
left_child=1 5 3 4 8 -1 -5 -8 -2
right_child=2 -3 -4 6 -6 -7 7 -9 -10
leaf_value=-3.2394609623721671 1.9392103075981142 -7.5490084481239323 5.4164323948047786 0.49804267308541705 6.2555640186582302 2.5094609880447387 -0.89131189300900415 -5.485859298706055 -0.69587357264977923
leaf_weight=21 20 20 27 21 21 20 21 22 27
leaf_count=21 20 20 27 21 21 20 21 22 27
internal_value=0 -2.76753 1.06075 0.16981 2.22592 -0.435109 -2.01481 -3.24201 0.425439
internal_weight=0 61 159 132 68 41 64 43 47
internal_count=220 61 159 132 68 41 64 43 47
is_linear=0
shrinkage=0.05


Tree=99
num_leaves=10
num_cat=0
split_feature=4 7 13 10 6 4 7 13 10
split_gain=233249 280522 245588 181411 170390 125515 90356.9 81368 45154
threshold=1358.0000000000002 1064.9343447491078 0.087068344870534956 2179.1000000000004 1814.4285714285718 2404.5000000000005 687.06319959731513 -0.014503312446217385 1834.9833333333333
decision_type=2 2 2 2 2 2 2 2 2
left_child=2 3 4 5 -1 8 -5 -8 -2
right_child=1 -3 -4 6 -6 -7 7 -9 -10
leaf_value=2.7322654269990467 1.8777449268102648 6.3914551110494706 -7.1715577745437633 1.1370594772696496 -3.7162527441978455 5.3065435653924951 -5.2927381038665775 -1.084997828801473 -1.1452196893237887
leaf_weight=21 30 21 20 20 20 20 20 27 21
leaf_count=21 30 21 20 20 20 20 20 27 21
internal_value=0 1.00771 -2.62916 0.188443 -0.413353 1.94949 -1.67774 -2.87553 0.632995
internal_weight=0 159 61 138 41 71 67 47 51
internal_count=220 159 61 138 41 71 67 47 51
is_linear=0
shrinkage=0.05


Tree=100
num_leaves=8
num_cat=0
split_feature=0 4 11 11 5 4 4
split_gain=267388 393534 111686 148337 138981 134052 26645.1
threshold=28.500000000000004 2975.5000000000005 995.09003554711398 941.89466497796832 2030.0000000000002 1174.5000000000002 1909.5000000000002
decision_type=2 2 2 2 2 2 2
left_child=-1 2 3 4 5 -2 -7
right_child=1 -3 -4 -5 -6 6 -8
leaf_value=-5.270121442187917 -2.8816507929847357 5.1217141226718299 -3.4616107852370654 3.7208372644756156 -3.154229620099068 0.32109503984451293 2.5862635583490938
leaf_weight=22 21 38 27 23 38 20 37
leaf_count=22 21 38 27 23 38 20 37
internal_value=0 0.531761 -0.518952 0.052644 -0.67467 0.53332 1.79147
internal_weight=0 204 166 139 116 78 57
internal_count=226 204 166 139 116 78 57
is_linear=0
shrinkage=0.05


Tree=101
num_leaves=8
num_cat=0
split_feature=13 4 9 5 7 5 9
split_gain=247649 476689 194651 116983 68034.5 131641 55124
threshold=-0.085936898755354416 2762.0000000000005 938.38501750038984 962.00000000000011 519.88429738501986 1619.5000000000002 792.04732074264268
decision_type=2 2 2 2 2 2 2
left_child=-1 2 3 -2 -5 -6 -7
right_child=1 -3 -4 4 5 6 -8
leaf_value=-5.3433045339584355 3.3753531018029088 5.5416278017194651 -4.3856400950201628 1.6703950378629899 -4.766751434504986 -1.4361821767530945 1.4049558774117501
leaf_weight=20 23 38 29 27 20 38 31
leaf_count=20 23 38 29 27 20 38 31
internal_value=0 0.484348 -0.65956 0.117824 -0.528066 -1.19501 -0.159729
internal_weight=0 206 168 139 116 89 69
internal_count=226 206 168 139 116 89 69
is_linear=0
shrinkage=0.05


Tree=102
num_leaves=9
num_cat=0
split_feature=0 4 4 1 11 6 4 0
split_gain=242783 348063 119300 200821 173452 150956 34642.7 62797.6
threshold=28.500000000000004 3051.0000000000005 1558.0000000000002 1.0000000180025095e-35 989.28437961601514 2572.7142857142867 2223.0000000000005 203.50000000000003
decision_type=2 2 2 2 2 2 2 2
left_child=-1 2 3 -2 5 6 7 -4
right_child=1 -3 4 -5 -6 -7 -8 -9
leaf_value=-5.0201262875036763 -4.4893142386845177 6.3021094633185344 -2.0634827405214309 1.4489686310291292 4.6842940839854155 -3.7739370968030848 2.5191512107849121 1.4486744959013804
leaf_weight=22 35 23 20 24 22 23 22 35
leaf_count=22 35 23 20 24 22 23 22 35
internal_value=0 0.508367 -0.227854 -2.07374 0.664829 -0.219453 0.842276 0.171526
internal_weight=0 204 181 59 122 100 77 55
internal_count=226 204 181 59 122 100 77 55
is_linear=0
shrinkage=0.05


Tree=103
num_leaves=10
num_cat=0
split_feature=13 7 13 13 7 13 11 8 3
split_gain=232407 138158 483224 327582 258074 60606.2 38956 31211.6 30690.4
threshold=-0.085936898755354416 810.55541727666684 0.078702835136775798 0.066602177232249385 857.15909377355285 0.021284796284103406 867.95516732875274 1759.964285714286 2201.0000000000005
decision_type=2 2 2 2 2 2 2 2 2
left_child=-1 3 4 5 -3 6 7 -2 -6
right_child=1 2 -4 -5 8 -7 -8 -9 -10
leaf_value=-5.1741847670078283 0.184845385728059 4.6212008249759675 8.8156904911994936 -6.4542329072952276 -0.84683283964792888 2.7413106461366019 1.3612370865685601 -2.3216524113779484 -3.4906053397966468
leaf_weight=20 27 20 20 20 21 24 28 23 23
leaf_count=20 27 20 20 20 21 24 28 23 23
internal_value=0 0.471285 2.03179 -0.603162 -0.0881781 0.544107 -0.131956 -0.968144 -2.2288
internal_weight=0 206 84 122 64 102 78 50 44
internal_count=226 206 84 122 64 102 78 50 44
is_linear=0
shrinkage=0.05


Tree=104
num_leaves=9
num_cat=0
split_feature=0 4 13 6 4 7 13 9
split_gain=215648 320067 230488 257006 265292 212191 119191 31756.3
threshold=28.500000000000004 3051.0000000000005 0.021284796284103406 2465.6428571428578 1741.0000000000002 936.70360345557219 0.061558065441819194 641.5987534669913
decision_type=2 2 2 2 2 2 2 2
left_child=-1 2 3 4 -2 6 -4 -6
right_child=1 -3 5 -5 7 -7 -8 -9
leaf_value=-4.730089315501127 -5.3945044766366479 6.0361575779707541 2.2929069186959947 -6.2881480813026434 -0.22506479595018472 5.7603997548421226 -2.5089389581233266 2.1288669535988256
leaf_weight=22 20 23 28 24 23 24 24 38
leaf_count=22 20 23 28 24 23 24 24 38
internal_value=0 0.480308 -0.225684 -1.74367 -0.397156 1.87153 0.0766704 1.24132
internal_weight=0 204 181 105 81 76 52 61
internal_count=226 204 181 105 81 76 52 61
is_linear=0
shrinkage=0.05


Tree=105
num_leaves=8
num_cat=0
split_feature=9 0 4 5 6 4 3
split_gain=164186 152281 74363 123000 200863 102816 56699.9
threshold=1052.2435772960068 50.500000000000007 1075.5000000000002 2435.0000000000005 2171.7142857142867 2223.0000000000005 1972.5000000000002
decision_type=2 2 2 2 2 2 2
left_child=1 -1 -3 5 -5 6 -4
right_child=-2 2 3 4 -6 -7 -8
leaf_value=4.1167360629354208 -3.4572592964878788 -2.439574631055196 1.9544020261509081 2.2117183907465505 -4.0782751433054605 4.0299416622519493 -0.89164565835680287
leaf_weight=28 27 24 35 22 30 30 35
leaf_count=28 27 24 35 22 30 30 35
internal_value=0 0.69178 0.1469 0.555291 -1.41712 1.58095 0.531378
internal_weight=0 204 176 152 52 100 70
internal_count=231 204 176 152 52 100 70
is_linear=0
shrinkage=0.05


Tree=106
num_leaves=10
num_cat=0
split_feature=7 8 8 10 8 4 10 13 0
split_gain=186468 134049 89146.3 259940 148956 101443 85306.5 57912.5 7759.84
threshold=1040.8218190630209 2433.0714285714289 1832.3571428571433 2179.1000000000004 1649.3571428571429 1635.0000000000002 2472.7000000000003 -0.016220641799805476 47.500000000000007
decision_type=2 2 2 2 2 2 2 2 2
left_child=2 -2 4 8 -1 -6 -5 -8 -4
right_child=1 -3 3 6 5 -7 7 -9 -10
leaf_value=2.796856592178345 -0.013243434429168702 -5.8022272634506225 4.2924710857868194 -2.0793181379636128 -4.6999534702301027 -0.25867452108197742 -0.45471140382811426 3.3503010678291321 5.6852955460548404
leaf_weight=25 20 20 20 30 20 36 20 20 20
leaf_count=25 20 20 20 30 20 36 20 20 20
internal_value=0 -2.90774 0.846585 1.77352 -0.412221 -1.84485 -0.063825 1.44779 4.98888
internal_weight=0 40 191 110 81 56 70 40 40
internal_count=231 40 191 110 81 56 70 40 40
is_linear=0
shrinkage=0.05


Tree=107
num_leaves=10
num_cat=0
split_feature=7 4 6 7 9 7 4 9 0
split_gain=168287 84620.6 131423 114688 107268 94640 93249.2 59737.1 47839.5
threshold=1040.8218190630209 2627.5000000000005 1846.5714285714287 738.25039485491652 874.32510443749732 708.35168207610934 1332.0000000000002 792.04732074264268 116.50000000000001
decision_type=2 2 2 2 2 2 2 2 2
left_child=1 2 3 6 7 -3 -1 -4 -2
right_child=8 5 4 -5 -6 -7 -8 -9 -10
leaf_value=-2.0750024523053852 -1.0331963682174683 5.0343513532118367 -1.4666100427027673 4.942444281578064 -4.3058259753953845 0.57850717300405863 2.2999057095626307 1.9872387999580021 -4.4915008223056798
leaf_weight=21 20 22 31 20 21 26 29 21 20
leaf_count=21 20 22 31 20 21 26 29 21 20
internal_value=0 0.804255 0.194516 1.74244 -1.2898 2.62077 0.462444 -0.0717865 -2.76235
internal_weight=0 191 143 70 73 48 50 52 40
internal_count=231 191 143 70 73 48 50 52 40
is_linear=0
shrinkage=0.05


Tree=108
num_leaves=9
num_cat=0
split_feature=7 8 8 10 3 9 9 0
split_gain=151879 119463 79268.8 235073 143689 118925 42984.3 6993.65
threshold=1040.8218190630209 2433.0714285714289 1832.3571428571433 2179.1000000000004 1757.0000000000002 841.63853116519374 630.2544858356099 47.500000000000007
decision_type=2 2 2 2 2 2 2 2
left_child=2 -2 4 7 -1 -5 -6 -4
right_child=1 -3 3 5 6 -7 -8 -9
leaf_value=1.817191772868759 0.10824456065893173 -5.3567069959640508 4.0346786308288571 1.9517688151768278 -0.92851280906926048 -2.1700344436722143 -4.0979363286495207 5.3569541931152349
leaf_weight=38 20 20 20 35 23 35 20 20
leaf_count=38 20 20 20 35 23 35 20 20
internal_value=0 -2.62423 0.764043 1.63812 -0.422978 -0.109133 -2.40266 4.69582
internal_weight=0 40 191 110 81 70 43 40
internal_count=231 40 191 110 81 70 43 40
is_linear=0
shrinkage=0.05


Tree=109
num_leaves=10
num_cat=0
split_feature=7 8 4 6 7 9 7 4 13
split_gain=137071 107815 75329.1 120034 101382 94470.7 84174.7 82337.4 57315.4
threshold=1040.8218190630209 2433.0714285714289 2627.5000000000005 1846.5714285714287 738.25039485491652 874.32510443749732 708.35168207610934 1332.0000000000002 0.014871425158692332
decision_type=2 2 2 2 2 2 2 2 2
left_child=2 -2 3 4 7 8 -4 -1 -5
right_child=1 -3 6 5 -6 -7 -8 -9 -10
leaf_value=-1.9579413550240652 0.10283223986625672 -5.0888716745376588 4.7159535234624697 -1.7222612407472397 4.6385360215045512 -4.0983994418666478 0.51368907529574181 2.1530335229018642 1.6001658630371094
leaf_weight=21 20 20 22 27 20 21 26 29 25
leaf_count=21 20 20 22 27 20 21 26 29 25
internal_value=0 -2.49302 0.72584 0.15055 1.62988 -1.26799 2.43973 0.426424 -0.124941
internal_weight=0 40 191 143 70 73 48 50 52
internal_count=231 40 191 143 70 73 48 50 52
is_linear=0
shrinkage=0.05


Tree=110
num_leaves=9
num_cat=0
split_feature=0 13 4 9 5 10 10 9
split_gain=699333 614993 82966.9 172605 131805 59722.6 88433.5 57389.2
threshold=31.500000000000004 0.084968708774234139 1847.5000000000002 780.47979928338839 3150.5000000000005 2366.2166666666672 2104.5000000000005 698.98443952679111
decision_type=2 2 2 2 2 2 2 2
left_child=-1 2 3 -2 5 6 7 -4
right_child=1 -3 4 -5 -6 -7 -8 -9
leaf_value=-9.3144723886535274 -8.5920783189626844e-05 7.0078989555095808 -0.89641746230747388 -6.1784588718414311 -3.9059292745590213 2.1368197395994857 -3.1459797386825086 2.6756202145056296
leaf_weight=21 26 29 23 20 20 37 20 22
leaf_count=21 26 29 23 20 20 37 20 22
internal_value=0 0.283898 -0.876793 -2.68634 -0.194507 0.533223 -0.379593 0.849912
internal_weight=0 197 168 46 122 102 65 45
internal_count=218 197 168 46 122 102 65 45
is_linear=0
shrinkage=0.05


Tree=111
num_leaves=8
num_cat=0
split_feature=0 13 3 4 13 7 13
split_gain=631148 555032 140210 119812 120425 108338 35055.1
threshold=31.500000000000004 0.084968708774234139 1516.0000000000002 3205.5000000000005 -0.045855806445474205 857.15909377355285 0.017985960002937066
decision_type=2 2 2 2 2 2 2
left_child=-1 2 -2 4 -4 6 -6
right_child=1 -3 3 -5 5 -7 -8
leaf_value=-8.8487485613141743 1.9828174822671074 6.6575041873701695 -5.3632236951341241 1.8917762279510499 -1.0208018528090583 -3.7464532548621778 1.5497246878487725
leaf_weight=21 35 29 24 21 36 31 21
leaf_count=21 35 29 24 21 36 31 21
internal_value=0 0.269703 -0.832953 -1.57395 -2.22377 -1.36755 -0.0737658
internal_weight=0 197 168 133 112 88 57
internal_count=218 197 168 133 112 88 57
is_linear=0
shrinkage=0.05


Tree=112
num_leaves=9
num_cat=0
split_feature=0 13 4 9 5 11 11 0
split_gain=569611 500916 76505.4 152329 113623 48427.4 71179.8 50599.8
threshold=31.500000000000004 0.084968708774234139 1847.5000000000002 780.47979928338839 3150.5000000000005 872.58312272826822 978.14012281445889 203.50000000000003
decision_type=2 2 2 2 2 2 2 2
left_child=-1 2 3 -2 5 7 -7 -4
right_child=1 -3 4 -5 -6 6 -8 -9
leaf_value=-8.4063109942844942 -0.0054125460294576801 6.3246287633632789 -2.4832074964046478 -5.8095631885528567 -3.5820697951316833 3.7882704539732504 -0.076029951325975939 0.68626505789511349
leaf_weight=21 26 29 20 20 20 22 26 34
leaf_count=21 26 29 20 20 20 22 26 34
internal_value=0 0.256218 -0.791306 -2.52896 -0.136126 0.539549 1.69511 -0.487614
internal_weight=0 197 168 46 122 102 48 54
internal_count=218 197 168 46 122 102 48 54
is_linear=0
shrinkage=0.05


Tree=113
num_leaves=7
num_cat=0
split_feature=0 13 3 13 5 3
split_gain=514074 452077 125529 92365.5 61096.8 56234.2
threshold=31.500000000000004 0.084968708774234139 1516.0000000000002 -0.045855806445474205 2387.0000000000005 2269.0000000000005
decision_type=2 2 2 2 2 2
left_child=-1 2 -2 -4 5 -5
right_child=1 -3 3 4 -6 -7
leaf_value=-7.9859952972048802 1.9125344451623303 6.0083974959521456 -3.5752973504968595 -2.7196123407437254 1.1079924093051392 0.35650210430224738
leaf_weight=21 35 29 37 39 33 24
leaf_count=21 35 29 37 39 33 24
